{"learner":{"attributes":{},"feature_names":[],"feature_types":[],"gradient_booster":{"model":{"cats":{"enc":[],"feature_segments":[],"sorted_idx":[]},"gbtree_model_param":{"num_parallel_tree":"1","num_trees":"78"},"iteration_indptr":[0,1,2,3,4,5,6,7,8,9,10,11,12,13,14,15,16,17,18,19,20,21,22,23,24,25,26,27,28,29,30,31,32,33,34,35,36,37,38,39,40,41,42,43,44,45,46,47,48,49,50,51,52,53,54,55,56,57,58,59,60,61,62,63,64,65,66,67,68,69,70,71,72,73,74,75,76,77,78],"tree_info":[0,0,0,0,0,0,0,0,0,0,0,0,0,0,0,0,0,0,0,0,0,0,0,0,0,0,0,0,0,0,0,0,0,0,0,0,0,0,0,0,0,0,0,0,0,0,0,0,0,0,0,0,0,0,0,0,0,0,0,0,0,0,0,0,0,0,0,0,0,0,0,0,0,0,0,0,0,0],"trees":[{"base_weights":[4.0983304E-2,-9.972268E-1,3.9594325E-1,1.2735931E-2,-1.3886892E-2,1.0607876E-2,1.3113617E0,1.514223E-2,-2.6487812E-1,1.7695135E0,-9.205019E-3,1.3898768E-2,-6.587219E-1,2.511346E-3,1.9580785E-2,1.1205585E-2,-9.169512E-1,8.808413E-3,-1.2269081E-2],"categories":[],"categories_nodes":[],"categories_segments":[],"categories_sizes":[],"default_left":[0,0,1,0,0,0,1,0,0,0,0,0,0,0,0,0,0,0,0],"id":0,"left_children":[1,3,5,-1,-1,7,9,-1,11,13,-1,-1,15,-1,-1,-1,17,-1,-1],"loss_changes":[1.5228088E1,1.1137586E1,1.08192005E1,0E0,0E0,9.771419E0,1.0923344E1,0E0,1.3930072E1,1.7654877E0,0E0,0E0,8.750571E0,0E0,0E0,0E0,9.566657E0,0E0,0E0],"parents":[2147483647,0,0,1,1,2,2,5,5,6,6,8,8,9,9,12,12,16,16],"right_children":[2,4,6,-1,-1,8,10,-1,12,14,-1,-1,16,-1,-1,-1,18,-1,-1],"split_conditions":[7.5624056E-2,6.2475298E-2,2.3482246E-2,1.2735931E-2,-1.3886892E-2,6.068134E-2,1.0392678E-1,1.514223E-2,7.841939E-2,4.916544E-2,-9.205019E-3,1.3898768E-2,9.538485E-2,2.511346E-3,1.9580785E-2,1.1205585E-2,7.1902804E-2,8.808413E-3,-1.2269081E-2],"split_indices":[1904,2260,1717,0,0,5179,21,0,236,100,0,0,169,0,0,0,4631,0,0],"split_type":[0,0,0,0,0,0,0,0,0,0,0,0,0,0,0,0,0,0,0],"sum_hessian":[3.925052E1,9.539464E0,2.9711056E1,1.0713409E0,8.468123E0,2.1621365E1,8.08969E0,2.651702E0,1.8969664E1,6.883765E0,1.2059247E0,3.1607223E0,1.5808941E1,1.0180404E0,5.8657246E0,1.5803611E0,1.42285795E1,1.8215461E0,1.2407034E1],"tree_param":{"num_deleted":"0","num_feature":"6390","num_nodes":"19","size_leaf_vector":"1"}},{"base_weights":[-2.7753418E-2,-2.6458213E-1,1.90023E-2,1.2066603E0,-4.929311E-1,4.0364123E-4,1.571156E-2,1.2444314E-2,-6.395545E-1,1.2441389E-2,-8.051514E-1,-9.8716396E-1,1.0127213E-2,-1.1325482E-2,1.2698745E-2],"categories":[],"categories_nodes":[],"categories_segments":[],"categories_sizes":[],"default_left":[1,0,0,0,0,0,0,0,0,0,1,1,0,0,0],"id":1,"left_children":[1,3,-1,5,7,-1,-1,-1,9,-1,11,13,-1,-1,-1],"loss_changes":[1.8730942E1,1.2834306E1,0E0,2.140706E0,9.010408E0,0E0,0E0,0E0,1.0483833E1,0E0,1.0445755E1,1.0119652E1,0E0,0E0,0E0],"parents":[2147483647,0,0,1,1,3,3,4,4,8,8,10,10,11,11],"right_children":[2,4,-1,6,8,-1,-1,-1,10,-1,12,14,-1,-1,-1],"split_conditions":[3.791322E-2,3.716855E-2,1.90023E-2,4.4014793E-2,1.8015623E-1,4.0364123E-4,1.571156E-2,1.2444314E-2,4.8829075E-2,1.2441389E-2,5.0959576E-2,4.9723502E-2,1.0127213E-2,-1.1325482E-2,1.2698745E-2],"split_indices":[3054,5,0,882,268,0,0,0,315,0,3339,3845,0,0,0],"split_type":[0,0,0,0,0,0,0,0,0,0,0,0,0,0,0],"sum_hessian":[3.8921383E1,3.5431797E1,3.4895866E0,4.184831E0,3.1246965E1,1.2609249E0,2.9239063E0,1.8491266E0,2.9397839E1,1.8492496E0,2.754859E1,2.545673E1,2.0918598E0,2.4384262E1,1.0724664E0],"tree_param":{"num_deleted":"0","num_feature":"6390","num_nodes":"15","size_leaf_vector":"1"}},{"base_weights":[4.41676E-2,-1.5656643E-1,1.8491084E-2,-1.143704E0,1.6336568E-1,-1.4462484E-2,-9.473862E-5,1.6598213E-2,-1.3280816E-2,1.0215744E0,-2.838145E-1,1.7725693E-2,-1.4419563E-3,1.23314E-2,-4.78091E-1,8.894383E-3,-7.6812003E-3],"categories":[],"categories_nodes":[],"categories_segments":[],"categories_sizes":[],"default_left":[1,0,0,1,0,0,0,0,0,1,0,0,0,0,0,0,0],"id":2,"left_children":[1,3,-1,5,7,-1,-1,-1,9,11,13,-1,-1,-1,15,-1,-1],"loss_changes":[1.5321752E1,1.2269745E1,0E0,3.2427387E0,7.891417E0,0E0,0E0,0E0,8.022093E0,5.4570174E0,7.272749E0,0E0,0E0,0E0,8.942223E0,0E0,0E0],"parents":[2147483647,0,0,1,1,3,3,4,4,8,8,9,9,10,10,14,14],"right_children":[2,4,-1,6,8,-1,-1,-1,10,12,14,-1,-1,-1,16,-1,-1],"split_conditions":[4.0770024E-2,7.484206E-2,1.8491084E-2,3.3733327E-2,4.7030058E-2,-1.4462484E-2,-9.473862E-5,1.6598213E-2,4.7640745E-2,3.8678307E-2,4.8829075E-2,1.7725693E-2,-1.4419563E-3,1.23314E-2,2.6486218E-1,8.894383E-3,-7.6812003E-3],"split_indices":[3120,1904,0,2841,1702,0,0,0,1650,2309,315,0,0,0,3165,0,0],"split_type":[0,0,0,0,0,0,0,0,0,0,0,0,0,0,0,0,0],"sum_hessian":[4.048966E1,3.7259186E1,3.2304728E0,8.489706E0,2.876948E1,6.484846E0,2.0048594E0,2.151006E0,2.6618473E1,4.941173E0,2.1677301E1,2.6886306E0,2.2525427E0,1.8539445E0,1.9823357E1,3.1069436E0,1.6716413E1],"tree_param":{"num_deleted":"0","num_feature":"6390","num_nodes":"17","size_leaf_vector":"1"}},{"base_weights":[1.106319E-1,-1.273045E-2,3.7028304E-1,-6.538231E-1,7.3984253E-1,1.3854057E-2,-1.1128908E0,9.6841955E-1,-1.17699625E-2,-1.4430271E-2,3.057104E-3,1.2621148E0,-9.595358E-3,1.4871536E0,-7.254659E-3,1.6848084E-2,-9.132361E-3],"categories":[],"categories_nodes":[],"categories_segments":[],"categories_sizes":[],"default_left":[0,0,0,0,1,0,1,1,0,0,0,1,0,1,0,0,0],"id":3,"left_children":[1,-1,3,5,7,-1,9,11,-1,-1,-1,13,-1,15,-1,-1,-1],"loss_changes":[1.5940836E1,0E0,1.4498039E1,1.1230789E1,1.3267323E1,0E0,4.657357E0,1.5524679E1,0E0,0E0,0E0,1.1084106E1,0E0,1.1227669E1,0E0,0E0,0E0],"parents":[2147483647,0,0,2,2,3,3,4,4,6,6,7,7,11,11,13,13],"right_children":[2,-1,4,6,8,-1,10,12,-1,-1,-1,14,-1,16,-1,-1,-1],"split_conditions":[4.312357E-2,-1.273045E-2,2.0215191E-1,8.977198E-2,5.8076177E-2,1.3854057E-2,5.0385848E-2,3.806008E-2,-1.17699625E-2,-1.4430271E-2,3.057104E-3,4.8167177E-2,-9.595358E-3,4.157119E-2,-7.254659E-3,1.6848084E-2,-9.132361E-3],"split_indices":[5269,0,4953,1852,3063,0,4078,798,0,0,0,2931,0,3141,0,0,0],"split_type":[0,0,0,0,0,0,0,0,0,0,0,0,0,0,0,0,0],"sum_hessian":[4.2057613E1,6.0285664E0,3.6029045E1,9.349884E0,2.6679161E1,1.3472751E0,8.002609E0,2.4278776E1,2.400385E0,6.4778647E0,1.5247446E0,2.1368902E1,2.909873E0,1.9421705E1,1.9471974E0,1.8219566E1,1.2021384E0],"tree_param":{"num_deleted":"0","num_feature":"6390","num_nodes":"17","size_leaf_vector":"1"}},{"base_weights":[4.1450012E-2,-1.4694001E-1,1.815826E-2,1.5670112E0,-3.9359337E-1,2.389957E-3,1.8306697E-2,1.3335369E-2,-5.413692E-1,9.6421325E-1,-7.4053353E-1,-4.365789E-3,1.650648E-2,1.2271232E-2,-9.1113085E-1,-1.1053822E-2,1.2266973E-2],"categories":[],"categories_nodes":[],"categories_segments":[],"categories_sizes":[],"default_left":[1,0,0,0,0,0,0,0,0,0,0,0,0,0,1,0,0],"id":4,"left_children":[1,3,-1,5,7,-1,-1,-1,9,11,13,-1,-1,-1,15,-1,-1],"loss_changes":[1.480196E1,1.7625854E1,0E0,1.4050722E0,9.90295E0,0E0,0E0,0E0,1.0863592E1,4.9407144E0,1.1342464E1,0E0,0E0,0E0,1.3234024E1,0E0,0E0],"parents":[2147483647,0,0,1,1,3,3,4,4,8,8,9,9,10,10,14,14],"right_children":[2,4,-1,6,8,-1,-1,-1,10,12,14,-1,-1,-1,16,-1,-1],"split_conditions":[4.0770024E-2,4.8829075E-2,1.815826E-2,4.3543924E-2,5.7126734E-2,2.389957E-3,1.8306697E-2,1.3335369E-2,5.8223184E-2,5.2082006E-2,6.0892124E-2,-4.365789E-3,1.650648E-2,1.2271232E-2,4.5157634E-2,-1.1053822E-2,1.2266973E-2],"split_indices":[3120,315,0,929,2887,0,0,0,4114,1540,237,0,0,0,6208,0,0],"split_type":[0,0,0,0,0,0,0,0,0,0,0,0,0,0,0,0,0],"sum_hessian":[4.2482624E1,3.9234215E1,3.2484086E0,4.262407E0,3.497181E1,1.0218638E0,3.240543E0,2.1239607E0,3.284785E1,3.388815E0,2.9459034E1,1.2342005E0,2.1546144E0,1.8562366E0,2.7602797E1,2.5746328E1,1.8564694E0],"tree_param":{"num_deleted":"0","num_feature":"6390","num_nodes":"17","size_leaf_vector":"1"}},{"base_weights":[-1.4727928E-1,-3.4471458E-1,1.7748972E-2,1.164522E0,-5.675821E-1,-4.4049984E-3,1.773676E-2,1.3223667E-2,-7.3651856E-1,1.1088901E-2,-9.237027E-1,-1.0462686E0,9.549044E-3,9.3035875E-3,-1.1794844E-2],"categories":[],"categories_nodes":[],"categories_segments":[],"categories_sizes":[],"default_left":[1,0,0,0,0,0,0,0,0,0,1,0,0,0,0],"id":5,"left_children":[1,3,-1,5,7,-1,-1,-1,9,-1,11,13,-1,-1,-1],"loss_changes":[1.6159248E1,1.343891E1,0E0,5.880692E0,1.1757121E1,0E0,0E0,0E0,1.1955235E1,0E0,7.7399235E0,8.459669E0,0E0,0E0,0E0],"parents":[2147483647,0,0,1,1,3,3,4,4,8,8,10,10,11,11],"right_children":[2,4,-1,6,8,-1,-1,-1,10,-1,12,14,-1,-1,-1],"split_conditions":[5.0959576E-2,4.8829075E-2,1.7748972E-2,4.3543924E-2,5.7126734E-2,-4.4049984E-3,1.773676E-2,1.3223667E-2,5.6648437E-2,1.1088901E-2,5.396589E-2,5.419562E-2,9.549044E-3,9.3035875E-3,-1.1794844E-2],"split_indices":[5790,315,0,929,2887,0,0,0,1859,0,5850,4114,0,0,0],"split_type":[0,0,0,0,0,0,0,0,0,0,0,0,0,0,0],"sum_hessian":[3.9967564E1,3.698893E1,2.978633E0,4.2156677E0,3.2773262E1,1.2359655E0,2.979702E0,2.1289048E0,3.0644358E1,2.3686159E0,2.8275742E1,2.6959862E1,1.3158801E0,1.3244276E0,2.5635435E1],"tree_param":{"num_deleted":"0","num_feature":"6390","num_nodes":"15","size_leaf_vector":"1"}},{"base_weights":[4.4751413E-2,1.7925797E-2,-1.4775667E-1,1.290673E0,-3.4870362E-1,2.0070566E-4,1.7192699E-2,-5.057832E-1,1.5679793E-2,-6.554078E-1,1.4815954E-2,1.2253767E-2,-8.1500524E-1,-9.3714725E-3,1.251457E-2],"categories":[],"categories_nodes":[],"categories_segments":[],"categories_sizes":[],"default_left":[0,0,0,0,1,0,0,1,0,0,0,0,1,0,0],"id":6,"left_children":[1,-1,3,5,7,-1,-1,9,-1,11,-1,-1,13,-1,-1],"loss_changes":[1.4454073E1,0E0,1.1697095E1,2.67867E0,1.1309019E1,0E0,0E0,1.0795498E1,0E0,1.04296465E1,0E0,0E0,8.634275E0,0E0,0E0],"parents":[2147483647,0,0,2,2,3,3,4,4,7,7,9,9,12,12],"right_children":[2,-1,4,6,8,-1,-1,10,-1,12,-1,-1,14,-1,-1],"split_conditions":[1.2578568E-1,1.7925797E-2,4.8829075E-2,3.62439E-2,5.605078E-2,2.0070566E-4,1.7192699E-2,5.1124018E-2,1.5679793E-2,1.3488203E-1,1.4815954E-2,1.2253767E-2,4.5157634E-2,-9.3714725E-3,1.251457E-2],"split_indices":[3120,0,315,179,1672,0,0,4755,0,1678,0,0,6208,0,0],"split_type":[0,0,0,0,0,0,0,0,0,0,0,0,0,0,0],"sum_hessian":[4.117066E1,3.2600598E0,3.79106E1,3.9821799E0,3.3928417E1,1.2684898E0,2.71369E0,3.203883E1,1.8895904E0,3.0418884E1,1.6199441E0,1.8570039E0,2.856188E1,2.748389E1,1.0779891E0],"tree_param":{"num_deleted":"0","num_feature":"6390","num_nodes":"15","size_leaf_vector":"1"}},{"base_weights":[-6.802064E-2,-2.4703872E-1,1.693523E-2,-4.1335204E-1,1.6224613E-2,1.23067675E-2,-5.8952576E-1,9.863294E-1,-7.8399366E-1,1.9064806E-4,1.4453403E-2,-9.6818817E-1,1.2079006E-2,7.7519696E-3,-1.2080456E-2],"categories":[],"categories_nodes":[],"categories_segments":[],"categories_sizes":[],"default_left":[1,1,0,0,0,0,0,0,1,0,0,0,0,0,0],"id":7,"left_children":[1,3,-1,5,-1,-1,7,9,11,-1,-1,13,-1,-1,-1],"loss_changes":[1.271564E1,1.1948181E1,0E0,1.0603506E1,0E0,0E0,1.0420476E1,1.704392E0,1.1655088E1,0E0,0E0,1.2107824E1,0E0,0E0,0E0],"parents":[2147483647,0,0,1,1,3,3,6,6,7,7,8,8,11,11],"right_children":[2,4,-1,6,-1,-1,8,10,12,-1,-1,14,-1,-1,-1],"split_conditions":[4.1638717E-2,5.0647218E-2,1.693523E-2,1.0519256E-1,1.6224613E-2,1.23067675E-2,4.8829075E-2,4.005895E-2,4.3989405E-2,1.9064806E-4,1.4453403E-2,5.3352036E-2,1.2079006E-2,7.7519696E-3,-1.2080456E-2],"split_indices":[3120,4755,0,4819,0,0,315,1583,6208,0,0,1583,0,0,0],"split_type":[0,0,0,0,0,0,0,0,0,0,0,0,0,0,0],"sum_hessian":[3.799587E1,3.527117E1,2.7246969E0,3.3105E1,2.1661696E0,2.6248333E0,3.0480167E1,2.900913E0,2.7579254E1,1.2687777E0,1.6321354E0,2.571525E1,1.8640049E0,2.8401232E0,2.2875126E1],"tree_param":{"num_deleted":"0","num_feature":"6390","num_nodes":"15","size_leaf_vector":"1"}},{"base_weights":[1.2230851E-1,3.7534294E-1,-1.1081742E0,-1.2760239E-2,6.050046E-1,2.6615893E-3,-1.3740954E-2,-1.153892E-2,7.904294E-1,9.630134E-1,-1.0784253E-2,1.1104313E0,-9.739295E-3,1.3079854E-2,-5.316343E-3],"categories":[],"categories_nodes":[],"categories_segments":[],"categories_sizes":[],"default_left":[1,0,0,0,0,0,0,0,1,1,0,1,0,0,0],"id":8,"left_children":[1,3,5,-1,7,-1,-1,-1,9,11,-1,13,-1,-1,-1],"loss_changes":[1.3170146E1,1.39411545E1,3.0116587E0,0E0,1.1075503E1,0E0,0E0,0E0,1.0322397E1,8.756496E0,0E0,8.9496975E0,0E0,0E0,0E0],"parents":[2147483647,0,0,1,1,2,2,4,4,8,8,9,9,11,11],"right_children":[2,4,6,-1,8,-1,-1,-1,10,12,-1,14,-1,-1,-1],"split_conditions":[4.5567773E-2,2.2149903E-1,5.6241956E-2,-1.2760239E-2,1.24756575E-1,2.6615893E-3,-1.3740954E-2,-1.153892E-2,3.6472782E-2,4.501169E-2,-1.0784253E-2,4.37908E-2,-9.739295E-3,1.3079854E-2,-5.316343E-3],"split_indices":[5246,931,4742,0,4594,0,0,0,4829,1843,0,174,0,0,0],"split_type":[0,0,0,0,0,0,0,0,0,0,0,0,0,0,0],"sum_hessian":[3.99636E1,3.3723682E1,6.239919E0,3.561177E0,3.0162506E1,1.0114827E0,5.2284365E0,2.3784182E0,2.7784088E1,2.5878937E1,1.9051505E0,2.444516E1,1.4337763E0,2.2001635E1,2.4435272E0],"tree_param":{"num_deleted":"0","num_feature":"6390","num_nodes":"15","size_leaf_vector":"1"}},{"base_weights":[5.5146325E-2,3.8849485E-1,-1.0204774E0,-1.1858493E-2,5.7063425E-1,3.2087916E-3,-1.3018287E-2,7.9280233E-1,-9.716923E-3,-1.0834849E-2,9.8646677E-1,-4.2794275E-1,1.2839113E0,7.4716704E-3,-9.377194E-3,1.4687952E-2,-8.9931255E-3],"categories":[],"categories_nodes":[],"categories_segments":[],"categories_sizes":[],"default_left":[1,0,0,0,1,0,0,0,0,0,0,0,1,0,0,0,0],"id":9,"left_children":[1,3,5,-1,7,-1,-1,9,-1,-1,11,13,15,-1,-1,-1,-1],"loss_changes":[1.49642315E1,9.778347E0,4.1494246E0,0E0,1.0750036E1,0E0,0E0,1.0519392E1,0E0,0E0,1.0687777E1,3.658243E0,9.458752E0,0E0,0E0,0E0,0E0],"parents":[2147483647,0,0,1,1,2,2,4,4,7,7,10,10,11,11,12,12],"right_children":[2,4,6,-1,8,-1,-1,10,-1,-1,12,14,16,-1,-1,-1,-1],"split_conditions":[2.8621089E-2,5.9894886E-2,1.1294786E-1,-1.1858493E-2,4.9794894E-2,3.2087916E-3,-1.3018287E-2,5.1928427E-2,-9.716923E-3,-1.0834849E-2,9.835433E-2,8.977198E-2,5.3725127E-2,7.4716704E-3,-9.377194E-3,1.4687952E-2,-8.9931255E-3],"split_indices":[1904,4594,2493,0,1552,0,0,5810,0,0,4953,1852,3741,0,0,0,0],"split_type":[0,0,0,0,0,0,0,0,0,0,0,0,0,0,0,0,0],"sum_hessian":[3.9628845E1,3.0740746E1,8.888102E0,2.6162448E0,2.81245E1,1.5166938E0,7.371408E0,2.5008118E1,3.1163836E0,1.9098814E0,2.3098236E1,3.9372206E0,1.9161015E1,1.0503453E0,2.8868754E0,1.7966757E1,1.1942586E0],"tree_param":{"num_deleted":"0","num_feature":"6390","num_nodes":"17","size_leaf_vector":"1"}},{"base_weights":[-1.4516877E-1,-3.2744032E-1,1.7167833E-2,1.3835279E-2,-4.7346497E-1,5.4311895E-1,-6.8933135E-1,1.0957277E0,-9.789279E-3,-8.937792E-1,9.8942E-1,-4.267004E-3,1.6058754E-2,5.9928894E-1,-1.1323009E0,1.4581527E-2,1.1420787E-4,-4.0420736E-3,1.0805173E-2,-1.28658805E-2,9.287452E-3],"categories":[],"categories_nodes":[],"categories_segments":[],"categories_sizes":[],"default_left":[1,0,0,0,0,1,1,0,0,0,1,0,0,0,1,0,0,0,0,0,0],"id":10,"left_children":[1,3,-1,-1,5,7,9,11,-1,13,15,-1,-1,17,19,-1,-1,-1,-1,-1,-1],"loss_changes":[1.5193186E1,1.06754875E1,0E0,0E0,8.647092E0,7.096754E0,1.1707973E1,5.132656E0,0E0,1.0877256E1,1.7703922E0,0E0,0E0,2.6574943E0,9.15712E0,0E0,0E0,0E0,0E0,0E0,0E0],"parents":[2147483647,0,0,1,1,4,4,5,5,6,6,7,7,9,9,10,10,13,13,14,14],"right_children":[2,4,-1,-1,6,8,10,12,-1,14,16,-1,-1,18,20,-1,-1,-1,-1,-1,-1],"split_conditions":[5.052642E-2,1.3488203E-1,1.7167833E-2,1.3835279E-2,1.852774E-1,3.6892142E-2,2.8097147E-2,4.4960406E-2,-9.789279E-3,5.8412097E-2,2.8250046E-2,-4.267004E-3,1.6058754E-2,3.4564763E-2,5.4926306E-2,1.4581527E-2,1.1420787E-4,-4.0420736E-3,1.0805173E-2,-1.28658805E-2,9.287452E-3],"split_indices":[3094,1678,0,0,290,2,2769,4799,0,5805,2922,0,0,1625,3339,0,0,0,0,0,0],"split_type":[0,0,0,0,0,0,0,0,0,0,0,0,0,0,0,0,0,0,0,0,0],"sum_hessian":[4.211098E1,3.9106846E1,3.0041342E0,2.4087653E0,3.6698082E1,6.1622186E0,3.0535862E1,4.7263293E0,1.4358896E0,2.763759E1,2.8982701E0,1.2272968E0,3.4990323E0,3.598656E0,2.4038935E1,1.6273593E0,1.270911E0,1.2182707E0,2.3803854E0,2.2714329E1,1.3246056E0],"tree_param":{"num_deleted":"0","num_feature":"6390","num_nodes":"21","size_leaf_vector":"1"}},{"base_weights":[4.240119E-2,-1.4728512E-1,1.7251145E-2,-1.3583853E-2,8.395565E-2,-9.410327E-1,3.5677683E-1,7.7221333E-3,-1.3544892E-2,1.7027356E-2,1.3450544E-1,1.1868017E0,-1.4636162E-1,2.6650936E-4,1.5531679E-2,-1.0560488E-2,2.762643E-3],"categories":[],"categories_nodes":[],"categories_segments":[],"categories_sizes":[],"default_left":[1,0,0,0,0,0,0,0,0,0,0,0,0,0,0,0,0],"id":11,"left_children":[1,3,-1,-1,5,7,9,-1,-1,-1,11,13,15,-1,-1,-1,-1],"loss_changes":[1.3522903E1,1.0834735E1,0E0,0E0,9.587604E0,6.1673036E0,7.8051767E0,0E0,0E0,0E0,7.306821E0,2.1664343E0,7.9579177E0,0E0,0E0,0E0,0E0],"parents":[2147483647,0,0,1,1,4,4,5,5,6,6,10,10,11,11,12,12],"right_children":[2,4,-1,-1,6,8,10,-1,-1,-1,12,14,16,-1,-1,-1,-1],"split_conditions":[4.0770024E-2,5.256864E-2,1.7251145E-2,-1.3583853E-2,1.15021445E-1,9.405629E-2,8.012049E-2,7.7221333E-3,-1.3544892E-2,1.7027356E-2,5.3434175E-2,5.0436307E-2,4.0189054E-2,2.6650936E-4,1.5531679E-2,-1.0560488E-2,2.762643E-3],"split_indices":[3120,2366,0,0,5246,5175,5796,0,0,0,5758,3017,318,0,0,0,0],"split_type":[0,0,0,0,0,0,0,0,0,0,0,0,0,0,0,0,0],"sum_hessian":[4.057059E1,3.7280556E1,3.2900336E0,5.195471E0,3.2085087E1,6.229943E0,2.5855145E1,1.0424842E0,5.187459E0,2.7205155E0,2.3134628E1,4.1944E0,1.8940228E1,1.2641219E0,2.9302778E0,5.5326395E0,1.3407589E1],"tree_param":{"num_deleted":"0","num_feature":"6390","num_nodes":"17","size_leaf_vector":"1"}},{"base_weights":[-8.688003E-2,-2.9319417E-1,1.7395895E-2,-1.2640945E0,6.948343E-2,2.6569166E-3,-1.4463046E-2,1.5097832E-2,-1.4292334E-1,1.2460868E0,-4.3731552E-1,5.0538903E-5,1.6676407E-2,1.454532E-2,-6.481458E-1,-9.839384E-3,7.033685E-3],"categories":[],"categories_nodes":[],"categories_segments":[],"categories_sizes":[],"default_left":[1,0,0,0,0,0,0,0,0,0,0,0,0,0,1,0,0],"id":12,"left_children":[1,3,-1,5,7,-1,-1,-1,9,11,13,-1,-1,-1,15,-1,-1],"loss_changes":[1.6946352E1,1.4189189E1,0E0,3.4345798E0,9.4253235E0,0E0,0E0,0E0,1.1646158E1,2.6112642E0,1.0172607E1,0E0,0E0,0E0,1.0454904E1,0E0,0E0],"parents":[2147483647,0,0,1,1,3,3,4,4,8,8,9,9,10,10,14,14],"right_children":[2,4,-1,6,8,-1,-1,-1,10,12,14,-1,-1,-1,16,-1,-1],"split_conditions":[4.0770024E-2,7.5624056E-2,1.7395895E-2,5.8582872E-2,1.2061889E-1,2.6569166E-3,-1.4463046E-2,1.5097832E-2,4.8829075E-2,4.8521575E-2,1.8015623E-1,5.0538903E-5,1.6676407E-2,1.454532E-2,2.6717316E-2,-9.839384E-3,7.033685E-3],"split_indices":[3120,1904,0,2865,4126,0,0,0,315,87,268,0,0,0,1507,0,0],"split_type":[0,0,0,0,0,0,0,0,0,0,0,0,0,0,0,0,0],"sum_hessian":[4.261773E1,3.9046585E1,3.571145E0,9.943105E0,2.910348E1,1.0094961E0,8.933609E0,2.955394E0,2.6148087E1,4.007418E0,2.2140667E1,1.2726856E0,2.7347324E0,1.6285051E0,2.0512163E1,1.6647865E1,3.8642974E0],"tree_param":{"num_deleted":"0","num_feature":"6390","num_nodes":"17","size_leaf_vector":"1"}},{"base_weights":[1.1978681E-1,-8.117987E-2,1.6329538E-2,-8.538779E-1,3.4676418E-1,1.3564439E-2,-1.217448E0,-9.332714E-1,8.387361E-1,-1.473132E-2,7.371582E-3,-1.3343782E-2,5.210173E-3,1.2715632E0,-9.498068E-3,1.5172696E0,-8.694065E-3,-5.3114104E-3,1.8026108E-2],"categories":[],"categories_nodes":[],"categories_segments":[],"categories_sizes":[],"default_left":[1,0,0,0,0,0,1,1,1,0,0,0,0,1,0,0,0,0,0],"id":13,"left_children":[1,3,-1,5,7,-1,9,11,13,-1,-1,-1,-1,15,-1,17,-1,-1,-1],"loss_changes":[1.2405804E1,1.2392244E1,0E0,1.2361228E1,1.6056118E1,0E0,7.068924E0,4.89921E0,1.5178029E1,0E0,0E0,0E0,0E0,9.187639E0,0E0,9.013035E0,0E0,0E0,0E0],"parents":[2147483647,0,0,1,1,3,3,4,4,6,6,7,7,8,8,13,13,15,15],"right_children":[2,4,-1,6,8,-1,10,12,14,-1,-1,-1,-1,16,-1,18,-1,-1,-1],"split_conditions":[3.660385E-2,7.2041936E-2,1.6329538E-2,1.556005E-1,4.916544E-2,1.3564439E-2,3.8379792E-2,4.0036652E-2,3.5458E-2,-1.473132E-2,7.371582E-3,-1.3343782E-2,5.210173E-3,4.3258764E-2,-9.498068E-3,4.0740203E-2,-8.694065E-3,-5.3114104E-3,1.8026108E-2],"split_indices":[4819,1625,0,5479,100,0,3816,2996,1641,0,0,0,0,1774,0,3195,0,0,0],"split_type":[0,0,0,0,0,0,0,0,0,0,0,0,0,0,0,0,0,0,0],"sum_hessian":[3.9359734E1,3.5580563E1,3.7791727E0,1.23272E1,2.325336E1,1.3555065E0,1.0971694E1,6.2069154E0,1.7046446E1,9.920333E0,1.0513608E0,4.9297075E0,1.2772079E0,1.3957728E1,3.088717E0,1.2782117E1,1.175611E0,1.4575099E0,1.1324607E1],"tree_param":{"num_deleted":"0","num_feature":"6390","num_nodes":"19","size_leaf_vector":"1"}},{"base_weights":[-2.6587449E-2,3.4382454E-1,-9.5224607E-1,-1.03143435E-2,5.593301E-1,7.5422907E-3,-1.1751719E0,1.467319E-1,1.5988474E0,-1.4373179E-2,4.9894606E-3,1.0128505E0,-2.7535403E-1,1.909492E-2,7.79652E-5,-2.5756469E-3,1.4765968E0,1.1819103E-2,-6.89359E-1,1.7254516E-2,2.1975662E-3,9.32395E-3,-9.728249E-3],"categories":[],"categories_nodes":[],"categories_segments":[],"categories_sizes":[],"default_left":[1,0,0,0,1,0,1,0,1,0,0,0,0,0,0,0,1,0,0,0,0,0,0],"id":14,"left_children":[1,3,5,-1,7,-1,9,11,13,-1,-1,15,17,-1,-1,-1,19,-1,21,-1,-1,-1,-1],"loss_changes":[1.4948128E1,9.820722E0,5.623333E0,0E0,1.1608497E1,0E0,5.7220507E0,7.907695E0,3.8129234E0,0E0,0E0,4.5345354E0,9.753874E0,0E0,0E0,0E0,1.282917E0,0E0,6.5018406E0,0E0,0E0,0E0,0E0],"parents":[2147483647,0,0,1,1,2,2,4,4,6,6,7,7,8,8,11,11,12,12,16,16,18,18],"right_children":[2,4,6,-1,8,-1,10,12,14,-1,-1,16,18,-1,-1,-1,20,-1,22,-1,-1,-1,-1],"split_conditions":[2.5469821E-2,1.2840171E-1,5.6880146E-2,-1.03143435E-2,2.0744858E-2,7.5422907E-3,3.9853785E-2,7.896489E-2,3.7439E-2,-1.4373179E-2,4.9894606E-3,6.064616E-2,9.3596175E-2,1.909492E-2,7.79652E-5,-2.5756469E-3,4.293898E-2,1.1819103E-2,5.618834E-2,1.7254516E-2,2.1975662E-3,9.32395E-3,-9.728249E-3],"split_indices":[1904,5072,3911,0,1717,0,3005,1630,2,0,0,3764,5801,0,0,0,4021,0,1620,0,0,0,0],"split_type":[0,0,0,0,0,0,0,0,0,0,0,0,0,0,0,0,0,0,0,0,0,0,0],"sum_hessian":[4.1641544E1,3.0189474E1,1.1452072E1,3.5769405E0,2.6612534E1,1.0478168E0,1.0404255E1,1.9867867E1,6.744666E0,9.117947E0,1.2863091E0,6.051199E0,1.38166685E1,5.475464E0,1.2692022E0,1.7370944E0,4.3141046E0,2.6464736E0,1.1170195E1,3.2898617E0,1.0242429E0,1.3213382E0,9.848857E0],"tree_param":{"num_deleted":"0","num_feature":"6390","num_nodes":"23","size_leaf_vector":"1"}},{"base_weights":[-5.849162E-3,-1.9352855E-1,1.6885126E-2,1.60696E-2,-3.5978407E-1,-5.370081E-1,1.23729855E-2,1.2603406E-2,-7.0100343E-1,1.1575322E-2,-8.5896957E-1,1.0677466E-2,-1.0080674E-2],"categories":[],"categories_nodes":[],"categories_segments":[],"categories_sizes":[],"default_left":[1,0,0,0,1,0,0,0,0,0,0,0,0],"id":15,"left_children":[1,3,-1,-1,5,7,-1,-1,9,-1,11,-1,-1],"loss_changes":[1.3719385E1,1.2196462E1,0E0,0E0,1.0952711E1,1.0732995E1,0E0,0E0,1.017302E1,0E0,9.518951E0,0E0,0E0],"parents":[2147483647,0,0,1,1,4,4,5,5,8,8,10,10],"right_children":[2,4,-1,-1,6,8,-1,-1,10,-1,12,-1,-1],"split_conditions":[4.5594E-2,4.4946067E-2,1.6885126E-2,1.60696E-2,4.5866013E-2,1.1874974E-1,1.23729855E-2,1.2603406E-2,5.8101546E-2,1.1575322E-2,6.2475298E-2,1.0677466E-2,-1.0080674E-2],"split_indices":[3054,1131,0,0,4126,4755,0,0,2324,0,2260,0,0],"split_type":[0,0,0,0,0,0,0,0,0,0,0,0,0],"sum_hessian":[4.111555E1,3.7812912E1,3.3026419E0,2.4639204E0,3.534899E1,3.2415665E1,2.933324E0,2.1514187E0,3.0264248E1,1.875109E0,2.838914E1,1.5965338E0,2.6792604E1],"tree_param":{"num_deleted":"0","num_feature":"6390","num_nodes":"13","size_leaf_vector":"1"}},{"base_weights":[6.871566E-2,-1.0444049E0,3.5788226E-1,2.7929677E-3,-1.2500829E-2,6.398813E-1,-9.92317E-1,-6.8327373E-1,8.926058E-1,-1.2860126E-2,2.6265075E-3,7.327465E-3,-1.2288485E-2,-1.0432699E-2,1.1006209E0,1.3061136E0,-7.1198684E-3,1.4880317E-2,-8.954861E-3],"categories":[],"categories_nodes":[],"categories_segments":[],"categories_sizes":[],"default_left":[0,0,1,0,0,0,1,0,0,0,0,0,0,0,1,1,0,0,0],"id":16,"left_children":[1,3,5,-1,-1,7,9,11,13,-1,-1,-1,-1,-1,15,17,-1,-1,-1],"loss_changes":[1.3725862E1,2.7475128E0,1.345601E1,0E0,0E0,1.0127722E1,2.626554E0,4.864386E0,1.0946493E1,0E0,0E0,0E0,0E0,0E0,9.294924E0,9.552486E0,0E0,0E0,0E0],"parents":[2147483647,0,0,1,1,2,2,5,5,6,6,7,7,8,8,14,14,15,15],"right_children":[2,4,6,-1,-1,8,10,12,14,-1,-1,-1,-1,-1,16,18,-1,-1,-1],"split_conditions":[4.262181E-2,5.7541836E-2,4.378493E-2,2.7929677E-3,-1.2500829E-2,1.4586133E-1,5.4832254E-2,1.8416882E-1,4.0427215E-2,-1.2860126E-2,2.6265075E-3,7.327465E-3,-1.2288485E-2,-1.0432699E-2,5.6123033E-2,5.1983636E-2,-7.1198684E-3,1.4880317E-2,-8.954861E-3],"split_indices":[2187,979,3270,0,0,2935,1548,583,4953,0,0,0,0,0,2789,1584,0,0,0],"split_type":[0,0,0,0,0,0,0,0,0,0,0,0,0,0,0,0,0,0,0],"sum_hessian":[4.0481922E1,7.8092294E0,3.267269E1,1.0020852E0,6.807144E0,2.7462938E1,5.209753E0,4.131031E0,2.3331907E1,4.2017055E0,1.0080477E0,1.0535378E0,3.077493E0,1.8742257E0,2.1457682E1,1.9523733E1,1.9339491E0,1.8332993E1,1.1907411E0],"tree_param":{"num_deleted":"0","num_feature":"6390","num_nodes":"19","size_leaf_vector":"1"}},{"base_weights":[2.7664913E-2,-1.246369E-2,3.052779E-1,-1.20524345E-2,4.9391046E-1,8.0123305E-1,-6.6814893E-1,1.014378E0,-1.0935375E-2,-1.1907995E-2,1.2109364E-2,1.2176536E0,-7.2818235E-3,-9.406684E-3,1.4128371E-2],"categories":[],"categories_nodes":[],"categories_segments":[],"categories_sizes":[],"default_left":[0,0,0,0,1,1,1,1,0,0,0,0,0,0,0],"id":17,"left_children":[1,-1,3,-1,5,7,9,11,-1,-1,-1,13,-1,-1,-1],"loss_changes":[1.5382964E1,0E0,1.0747858E1,0E0,1.2100927E1,1.1636461E1,8.629668E0,9.370052E0,0E0,0E0,0E0,1.0521839E1,0E0,0E0,0E0],"parents":[2147483647,0,0,2,2,4,4,5,5,6,6,7,7,11,11],"right_children":[2,-1,4,-1,6,8,10,12,-1,-1,-1,14,-1,-1,-1],"split_conditions":[5.4076467E-2,-1.246369E-2,5.227514E-2,-1.20524345E-2,3.856146E-2,5.299516E-2,5.9533384E-2,5.8076177E-2,-1.0935375E-2,-1.1907995E-2,1.2109364E-2,4.4430908E-2,-7.2818235E-3,-9.406684E-3,1.4128371E-2],"split_indices":[3915,0,4292,0,1774,1828,5429,5178,0,0,0,5337,0,0,0],"split_type":[0,0,0,0,0,0,0,0,0,0,0,0,0,0,0],"sum_hessian":[4.1417213E1,6.785823E0,3.463139E1,3.2463195E0,3.138507E1,2.5066418E1,6.3186526E0,2.2949451E1,2.1169665E0,5.230206E0,1.0884467E0,2.0821749E1,2.1277022E0,1.4100571E0,1.9411692E1],"tree_param":{"num_deleted":"0","num_feature":"6390","num_nodes":"15","size_leaf_vector":"1"}},{"base_weights":[-4.294941E-3,1.43902E0,-2.0268008E-1,2.1506264E-3,1.6967392E-2,-3.9420196E-1,1.5723668E-2,9.1257584E-1,-5.706996E-1,-3.948504E-3,1.5316484E-2,-7.154365E-1,9.197509E-3,7.319471E-1,-9.0693855E-1,-1.1757112E-3,1.31709045E-2,-1.0839409E-2,1.0667679E-2],"categories":[],"categories_nodes":[],"categories_segments":[],"categories_sizes":[],"default_left":[0,0,1,0,0,0,0,0,1,0,0,0,0,1,1,0,0,0,0],"id":18,"left_children":[1,3,5,-1,-1,7,-1,9,11,-1,-1,13,-1,15,17,-1,-1,-1,-1],"loss_changes":[1.1916686E1,1.2216139E0,1.3052243E1,0E0,0E0,8.3184395E0,0E0,4.1722913E0,7.216131E0,0E0,0E0,8.50022E0,0E0,2.0721068E0,1.0035135E1,0E0,0E0,0E0,0E0],"parents":[2147483647,0,0,1,1,2,2,5,5,7,7,8,8,11,11,13,13,14,14],"right_children":[2,4,6,-1,-1,8,-1,10,12,-1,-1,14,-1,16,18,-1,-1,-1,-1],"split_conditions":[4.9328744E-2,6.181928E-2,5.052642E-2,2.1506264E-3,1.6967392E-2,5.671884E-2,1.5723668E-2,4.9684983E-2,5.246189E-2,-3.948504E-3,1.5316484E-2,4.9541883E-2,9.197509E-3,3.3630956E-2,6.2128965E-2,-1.1757112E-3,1.31709045E-2,-1.0839409E-2,1.0667679E-2],"split_indices":[6306,5188,3094,0,0,1131,0,4697,5850,0,0,3115,0,1640,1705,0,0,0,0],"split_type":[0,0,0,0,0,0,0,0,0,0,0,0,0,0,0,0,0,0,0],"sum_hessian":[3.9599777E1,4.0295863E0,3.557019E1,1.0199822E0,3.0096042E0,3.280821E1,2.7619805E0,3.4076557E0,2.9400555E1,1.2114246E0,2.1962311E0,2.7272154E1,2.1284006E0,2.8569582E0,2.4415195E1,1.4911547E0,1.3658035E0,2.2819544E1,1.5956529E0],"tree_param":{"num_deleted":"0","num_feature":"6390","num_nodes":"19","size_leaf_vector":"1"}},{"base_weights":[-8.6732335E-2,-9.943167E-1,2.2845784E-1,3.1044926E-3,-1.2582662E-2,1.6887309E-2,-1.988688E-2,-4.67919E-1,8.77414E-1,1.3856401E-2,-7.3721206E-1,1.3361663E0,-9.445326E-3,-1.0364205E0,7.375779E-1,1.2207638E-3,1.67699E-2,7.3832115E-3,-1.2355223E-2,-3.819204E-5,1.1895912E-2],"categories":[],"categories_nodes":[],"categories_segments":[],"categories_sizes":[],"default_left":[0,0,0,0,0,0,1,0,1,0,1,0,0,0,0,0,0,0,0,0,0],"id":19,"left_children":[1,3,5,-1,-1,-1,7,9,11,-1,13,15,-1,17,19,-1,-1,-1,-1,-1,-1],"loss_changes":[1.1288553E1,3.8876276E0,1.0736779E1,0E0,0E0,0E0,1.0948434E1,1.0073665E1,8.848997E0,0E0,8.039794E0,2.9672031E0,0E0,5.9023895E0,1.132238E0,0E0,0E0,0E0,0E0,0E0,0E0],"parents":[2147483647,0,0,1,1,2,2,6,6,7,7,8,8,10,10,11,11,13,13,14,14],"right_children":[2,4,6,-1,-1,-1,8,10,12,-1,14,16,-1,18,20,-1,-1,-1,-1,-1,-1],"split_conditions":[7.5624056E-2,4.2282768E-2,6.068134E-2,3.1044926E-3,-1.2582662E-2,1.6887309E-2,2.2989823E-2,4.5476083E-2,4.6480723E-2,1.3856401E-2,4.5516055E-2,5.7136796E-2,-9.445326E-3,4.1009314E-2,1.6195185E-1,1.2207638E-3,1.67699E-2,7.3832115E-3,-1.2355223E-2,-3.819204E-5,1.1895912E-2],"split_indices":[1904,128,5179,0,0,0,1717,3855,2837,0,4990,929,0,4818,6182,0,0,0,0,0,0],"split_type":[0,0,0,0,0,0,0,0,0,0,0,0,0,0,0,0,0,0,0,0,0],"sum_hessian":[3.7667866E1,9.154112E0,2.8513756E1,1.5106139E0,7.643498E0,3.3014135E0,2.5212341E1,1.7135117E1,8.077225E0,1.6477929E0,1.5487324E1,6.6655235E0,1.4117007E0,1.312229E1,2.3650348E0,1.7587278E0,4.906796E0,1.0504653E0,1.2071824E1,1.2713321E0,1.0937026E0],"tree_param":{"num_deleted":"0","num_feature":"6390","num_nodes":"21","size_leaf_vector":"1"}},{"base_weights":[-6.9366336E-2,-9.6672994E-1,2.722804E-1,1.1852262E-2,-1.3052784E-2,1.447746E0,-3.5975162E-2,3.5694925E-4,1.7867595E-2,-9.122147E-1,5.146491E-1,6.3097244E-3,-1.3919529E-2,-7.1055645E-1,8.656941E-1,2.3621023E-3,-1.0948536E-2,1.2528412E0,-7.471685E-3,-5.5874703E-3,1.597791E-2],"categories":[],"categories_nodes":[],"categories_segments":[],"categories_sizes":[],"default_left":[0,0,0,0,0,0,0,0,0,0,0,0,0,0,1,0,0,0,0,0,0],"id":20,"left_children":[1,3,5,-1,-1,7,9,-1,-1,11,13,-1,-1,15,17,-1,-1,19,-1,-1,-1],"loss_changes":[1.2861442E1,9.962212E0,1.1118749E1,0E0,0E0,2.9853687E0,1.2614575E1,0E0,0E0,8.336798E0,7.5387716E0,0E0,0E0,1.762841E0,9.030606E0,0E0,0E0,7.6590004E0,0E0,0E0,0E0],"parents":[2147483647,0,0,1,1,2,2,5,5,6,6,9,9,10,10,13,13,14,14,17,17],"right_children":[2,4,6,-1,-1,8,10,-1,-1,12,14,-1,-1,16,18,-1,-1,20,-1,-1,-1],"split_conditions":[7.5624056E-2,5.619718E-2,4.4019654E-2,1.1852262E-2,-1.3052784E-2,5.5290595E-2,3.9639115E-2,3.5694925E-4,1.7867595E-2,4.3483917E-2,4.6835132E-2,6.3097244E-3,-1.3919529E-2,4.32809E-2,4.8358686E-2,2.3621023E-3,-1.0948536E-2,6.064616E-2,-7.471685E-3,-5.5874703E-3,1.597791E-2],"split_indices":[1904,3911,2831,0,0,6189,1625,0,0,2,2,0,0,3901,2878,0,0,3764,0,0,0],"split_type":[0,0,0,0,0,0,0,0,0,0,0,0,0,0,0,0,0,0,0,0,0],"sum_hessian":[4.0092587E1,1.05506935E1,2.9541893E1,1.0942538E0,9.45644E0,5.3695817E0,2.4172312E1,1.2535629E0,4.116019E0,9.074636E0,1.5097674E1,2.0772965E0,6.99734E0,3.134306E0,1.1963368E1,1.0161737E0,2.1181324E0,9.827598E0,2.135771E0,1.4728372E0,8.35476E0],"tree_param":{"num_deleted":"0","num_feature":"6390","num_nodes":"21","size_leaf_vector":"1"}},{"base_weights":[2.9468648E-2,-1.740758E-1,1.6215246E-2,-1.0858805E0,1.713908E-1,2.8006923E-3,-1.2677015E-2,1.45276105E-2,-6.5568894E-2,-1.2431081E-2,2.1375331E-1,-6.8904567E-1,6.0176903E-1,7.173602E-3,-1.0930002E-2,-9.458271E-3,8.39521E-3],"categories":[],"categories_nodes":[],"categories_segments":[],"categories_sizes":[],"default_left":[1,0,0,0,0,0,0,0,0,0,0,0,0,0,0,0,0],"id":21,"left_children":[1,3,-1,5,7,-1,-1,-1,9,-1,11,13,15,-1,-1,-1,-1],"loss_changes":[1.3165474E1,1.1574147E1,0E0,2.8560562E0,8.318412E0,0E0,0E0,0E0,8.098019E0,0E0,7.4558177E0,4.481607E0,6.163106E0,0E0,0E0,0E0,0E0],"parents":[2147483647,0,0,1,1,3,3,4,4,8,8,10,10,11,11,12,12],"right_children":[2,4,-1,6,8,-1,-1,-1,10,-1,12,14,16,-1,-1,-1,-1],"split_conditions":[4.0770024E-2,7.5624056E-2,1.6215246E-2,5.0237305E-2,6.068134E-2,2.8006923E-3,-1.2677015E-2,1.45276105E-2,8.898814E-2,-1.2431081E-2,6.597498E-2,5.391115E-2,1.05880596E-1,7.173602E-3,-1.0930002E-2,-9.458271E-3,8.39521E-3],"split_indices":[3120,1904,0,4990,5179,0,0,0,5462,0,3970,936,4831,0,0,0,0],"split_type":[0,0,0,0,0,0,0,0,0,0,0,0,0,0,0,0,0],"sum_hessian":[3.8756336E1,3.5152718E1,3.6036167E0,9.070179E0,2.6082539E1,1.0020219E0,8.068157E0,3.2698486E0,2.281269E1,3.7122989E0,1.9100391E1,5.508321E0,1.3592071E1,1.0559804E0,4.4523406E0,1.413431E0,1.2178639E1],"tree_param":{"num_deleted":"0","num_feature":"6390","num_nodes":"17","size_leaf_vector":"1"}},{"base_weights":[4.1311696E-2,-9.1303456E-1,3.9280108E-1,1.280505E-2,-1.3785356E-2,-1.1422144E-2,5.874168E-1,-1.0775219E-2,7.7806485E-1,1.0439012E0,-3.2838362E-1,1.3206829E0,-5.418908E-1,-9.090936E-3,6.73151E-3,1.4849988E-2,-4.34086E-3,-9.26738E-3,1.1842403E-3],"categories":[],"categories_nodes":[],"categories_segments":[],"categories_sizes":[],"default_left":[0,0,0,0,0,0,0,0,1,1,0,1,1,0,0,0,0,0,0],"id":22,"left_children":[1,3,5,-1,-1,-1,7,-1,9,11,13,15,17,-1,-1,-1,-1,-1,-1],"loss_changes":[1.3186033E1,1.2582548E1,9.228715E0,0E0,0E0,0E0,9.117733E0,0E0,7.3974E0,9.30854E0,3.7566113E0,5.534544E0,1.0292313E0,0E0,0E0,0E0,0E0,0E0,0E0],"parents":[2147483647,0,0,1,1,2,2,6,6,8,8,9,9,10,10,11,11,12,12],"right_children":[2,4,6,-1,-1,-1,8,-1,10,12,14,16,18,-1,-1,-1,-1,-1,-1],"split_conditions":[7.5624056E-2,5.619718E-2,1.07460506E-1,1.280505E-2,-1.3785356E-2,-1.1422144E-2,3.885419E-2,-1.0775219E-2,3.925164E-2,5.0143965E-2,5.7816777E-2,4.998346E-2,5.8098298E-2,-9.090936E-3,6.73151E-3,1.4849988E-2,-4.34086E-3,-9.26738E-3,1.1842403E-3],"split_indices":[1904,3911,133,0,0,0,4953,0,1774,47,9,1628,2356,0,0,0,0,0,0],"split_type":[0,0,0,0,0,0,0,0,0,0,0,0,0,0,0,0,0,0,0],"sum_hessian":[3.72402E1,9.59385E0,2.7646353E1,1.3730302E0,8.220819E0,2.5628676E0,2.5083485E1,2.0991979E0,2.2984287E1,1.8577394E1,4.406892E0,1.5959096E1,2.6182985E0,2.8479137E0,1.5589783E0,1.4733218E1,1.2258779E0,1.3992836E0,1.2190149E0],"tree_param":{"num_deleted":"0","num_feature":"6390","num_nodes":"19","size_leaf_vector":"1"}},{"base_weights":[-1.268485E-1,1.366376E-1,-1.21547105E-2,-9.9683094E-1,4.1128808E-1,2.6625344E-3,-1.2724422E-2,-6.0745025E-1,7.3706645E-1,-1.2580315E-2,6.3843396E-3,1.0517962E0,-9.105108E-3,-9.767366E-3,1.315347E0,-2.5574379E-3,1.6177297E-2],"categories":[],"categories_nodes":[],"categories_segments":[],"categories_sizes":[],"default_left":[1,0,0,0,0,0,0,1,1,0,0,0,0,0,0,0,0],"id":23,"left_children":[1,3,-1,5,7,-1,-1,9,11,-1,-1,13,-1,-1,15,-1,-1],"loss_changes":[1.1333866E1,1.0448437E1,0E0,2.6299834E0,9.297213E0,0E0,0E0,6.484341E0,1.1668371E1,0E0,0E0,1.0804508E1,0E0,0E0,8.102858E0,0E0,0E0],"parents":[2147483647,0,0,1,1,3,3,4,4,7,7,8,8,11,11,14,14],"right_children":[2,4,-1,6,8,-1,-1,10,12,-1,-1,14,-1,-1,16,-1,-1],"split_conditions":[4.0614303E-2,4.025523E-2,-1.21547105E-2,4.3766607E-2,2.0215191E-1,2.6625344E-3,-1.2724422E-2,2.7143607E-2,4.890051E-2,-1.2580315E-2,6.3843396E-3,1.0568059E-1,-9.105108E-3,-9.767366E-3,4.9460094E-2,-2.5574379E-3,1.6177297E-2],"split_indices":[4799,2187,0,82,4953,0,0,1642,6189,0,0,5094,0,0,3569,0,0],"split_type":[0,0,0,0,0,0,0,0,0,0,0,0,0,0,0,0,0],"sum_hessian":[3.7934277E1,3.1246078E1,6.6881976E0,5.581609E0,2.5664469E1,1.0058599E0,4.5757494E0,6.009042E0,1.9655428E1,3.9412389E0,2.067803E0,1.6806553E1,2.848875E0,1.6213163E0,1.5185236E1,2.4758246E0,1.2709411E1],"tree_param":{"num_deleted":"0","num_feature":"6390","num_nodes":"17","size_leaf_vector":"1"}},{"base_weights":[-4.5765936E-2,-1.2028879E-2,2.0397034E-1,-1.1358037E-2,4.652331E-1,-8.0702704E-1,6.645615E-1,1.8664589E-3,-1.1454531E-2,8.8279635E-1,-8.866135E-3,-6.241231E-1,1.115377E0,2.6288906E-3,-1.0283603E-2,-7.0957444E-3,1.3333857E-2],"categories":[],"categories_nodes":[],"categories_segments":[],"categories_sizes":[],"default_left":[0,0,0,0,0,0,1,0,0,0,0,0,0,0,0,0,0],"id":24,"left_children":[1,-1,3,-1,5,7,9,-1,-1,11,-1,13,15,-1,-1,-1,-1],"loss_changes":[1.24572315E1,0E0,1.2994024E1,0E0,8.273757E0,1.7554259E0,9.897829E0,0E0,0E0,9.1449585E0,0E0,1.6559647E0,9.397406E0,0E0,0E0,0E0,0E0],"parents":[2147483647,0,0,2,2,4,4,5,5,6,6,9,9,11,11,12,12],"right_children":[2,-1,4,-1,6,8,10,-1,-1,12,-1,14,16,-1,-1,-1,-1],"split_conditions":[5.4076467E-2,-1.2028879E-2,4.312357E-2,-1.1358037E-2,9.7731255E-2,4.719657E-2,4.541561E-2,1.8664589E-3,-1.1454531E-2,4.6087433E-2,-8.866135E-3,4.562821E-2,1.4059381E-1,2.6288906E-3,-1.0283603E-2,-7.0957444E-3,1.3333857E-2],"split_indices":[3915,0,5269,0,2931,6306,4497,0,0,5337,0,177,2661,0,0,0,0],"split_type":[0,0,0,0,0,0,0,0,0,0,0,0,0,0,0,0,0],"sum_hessian":[4.1259235E1,6.6465664E0,3.461267E1,5.1019816E0,2.9510689E1,3.5843036E0,2.5926384E1,1.0245498E0,2.559754E0,2.3106426E1,2.8199577E0,2.8643656E0,2.0242062E1,1.0061817E0,1.858184E0,1.9194605E0,1.8322601E1],"tree_param":{"num_deleted":"0","num_feature":"6390","num_nodes":"17","size_leaf_vector":"1"}},{"base_weights":[4.4291914E-2,1.6010206E-2,-1.4437999E-1,-1.1466484E0,2.06856E-1,-1.348513E-2,2.797079E-3,-9.89428E-3,4.129801E-1,-5.3881973E-1,7.263279E-1,8.701301E-3,-1.0671396E-2,9.4707966E-1,-9.763228E-3,-8.606782E-3,1.1356266E-2],"categories":[],"categories_nodes":[],"categories_segments":[],"categories_sizes":[],"default_left":[0,0,0,1,0,0,0,0,0,0,1,0,0,0,0,0,0],"id":25,"left_children":[1,-1,3,5,7,-1,-1,-1,9,11,13,-1,-1,15,-1,-1,-1],"loss_changes":[1.1744355E1,0E0,1.2867799E1,3.1020222E0,7.1688304E0,0E0,0E0,0E0,7.5765433E0,5.7975416E0,7.897126E0,0E0,0E0,6.7476425E0,0E0,0E0,0E0],"parents":[2147483647,0,0,2,2,3,3,4,4,8,8,9,9,10,10,13,13],"right_children":[2,-1,4,6,8,-1,-1,-1,10,12,14,-1,-1,16,-1,-1,-1],"split_conditions":[5.8609832E-2,1.6010206E-2,7.484206E-2,4.673366E-2,9.859661E-2,-1.348513E-2,2.797079E-3,-9.89428E-3,7.8626014E-2,6.573409E-2,5.3025447E-2,8.701301E-3,-1.0671396E-2,1.0475729E-1,-9.763228E-3,-8.606782E-3,1.1356266E-2],"split_indices":[6238,0,1904,541,1837,0,0,0,2418,2226,4831,0,0,4423,0,0,0],"split_type":[0,0,0,0,0,0,0,0,0,0,0,0,0,0,0,0,0],"sum_hessian":[3.819908E1,3.3200083E0,3.487907E1,8.463491E0,2.641558E1,7.462008E0,1.0014832E0,3.3239856E0,2.3091595E1,5.541036E0,1.7550558E1,1.3346769E0,4.2063594E0,1.5929086E1,1.6214732E0,1.1677824E0,1.4761303E1],"tree_param":{"num_deleted":"0","num_feature":"6390","num_nodes":"17","size_leaf_vector":"1"}},{"base_weights":[-3.5809718E-2,1.5359549E-2,-2.1112749E-1,-9.9913955E-1,9.4423845E-2,7.309291E-3,-1.2582588E-2,1.3662659E-2,-1.0710054E-1,1.43097555E-2,-2.919562E-1,1.06648E-2,-5.1539147E-1,1.2735297E-2,-7.0457063E-3],"categories":[],"categories_nodes":[],"categories_segments":[],"categories_sizes":[],"default_left":[0,0,0,0,0,0,0,0,0,0,0,0,0,0,0],"id":26,"left_children":[1,-1,3,5,7,-1,-1,-1,9,-1,11,-1,13,-1,-1],"loss_changes":[1.1881566E1,0E0,9.391202E0,5.7948093E0,7.5118074E0,0E0,0E0,0E0,7.7344255E0,0E0,7.7744617E0,0E0,8.043253E0,0E0,0E0],"parents":[2147483647,0,0,2,2,3,3,4,4,8,8,10,10,12,12],"right_children":[2,-1,4,6,8,-1,-1,-1,10,-1,12,-1,14,-1,-1],"split_conditions":[1.2578568E-1,1.5359549E-2,7.5624056E-2,5.6880146E-2,6.068134E-2,7.309291E-3,-1.2582588E-2,1.3662659E-2,1.1294786E-1,1.43097555E-2,4.8829075E-2,1.06648E-2,3.8774885E-2,1.2735297E-2,-7.0457063E-3],"split_indices":[3120,0,1904,3911,5179,0,0,0,2493,0,315,0,178,0,0],"split_type":[0,0,0,0,0,0,0,0,0,0,0,0,0,0,0],"sum_hessian":[4.094134E1,3.3296123E0,3.761173E1,9.874805E0,2.7736921E1,1.0491431E0,8.825663E0,3.003275E0,2.4733646E1,1.9304507E0,2.2803196E1,2.6879516E0,2.0115246E1,1.3755797E0,1.8739666E1],"tree_param":{"num_deleted":"0","num_feature":"6390","num_nodes":"15","size_leaf_vector":"1"}},{"base_weights":[9.3960725E-2,-8.245007E-2,1.5581272E-2,1.4294235E-2,-2.623147E-1,-4.6627018E-1,1.1614248E0,1.1768914E-2,-6.078973E-1,2.634882E-4,1.5643772E-2,-7.640622E-1,1.1209209E-2,-9.383803E-3,9.349612E-3],"categories":[],"categories_nodes":[],"categories_segments":[],"categories_sizes":[],"default_left":[1,0,0,0,1,0,0,0,1,0,0,1,0,0,0],"id":27,"left_children":[1,3,-1,-1,5,7,9,-1,11,-1,-1,13,-1,-1,-1],"loss_changes":[1.1073885E1,1.0917455E1,0E0,0E0,1.0847642E1,8.106065E0,2.1238904E0,0E0,8.928194E0,0E0,0E0,9.174633E0,0E0,0E0,0E0],"parents":[2147483647,0,0,1,1,4,4,5,5,6,6,8,8,11,11],"right_children":[2,4,-1,-1,6,8,10,-1,12,-1,-1,14,-1,-1,-1],"split_conditions":[4.0770024E-2,1.1874974E-1,1.5581272E-2,1.4294235E-2,4.5040976E-2,6.299883E-2,1.6135351E-1,1.1768914E-2,2.6369603E-2,2.634882E-4,1.5643772E-2,6.1688073E-2,1.1209209E-2,-9.383803E-3,9.349612E-3],"split_indices":[3120,4755,0,0,2849,1381,822,0,1698,0,0,3165,0,0,0],"split_type":[0,0,0,0,0,0,0,0,0,0,0,0,0,0,0],"sum_hessian":[4.1375683E1,3.7768784E1,3.6069016E0,3.2769306E0,3.449185E1,3.0758146E1,3.7337053E0,1.8606814E0,2.8897465E1,1.2573287E0,2.4763765E0,2.7015213E1,1.8822526E0,2.4907429E1,2.1077836E0],"tree_param":{"num_deleted":"0","num_feature":"6390","num_nodes":"15","size_leaf_vector":"1"}},{"base_weights":[8.3188444E-2,-8.9922947E-1,3.4345505E-1,4.9720374E-3,-1.1920577E-2,-9.892847E-1,6.4939344E-1,1.332932E-3,-1.2587778E-2,-7.247626E-1,8.607827E-1,-1.0890519E-2,2.3462554E-3,1.0062569E0,-9.263756E-3,1.1685058E0,-9.207504E-3,1.3140403E-2,-5.344087E-3],"categories":[],"categories_nodes":[],"categories_segments":[],"categories_sizes":[],"default_left":[0,0,0,0,0,0,0,0,0,1,1,0,0,1,0,1,0,0,0],"id":28,"left_children":[1,3,5,-1,-1,7,9,-1,-1,11,13,-1,-1,15,-1,17,-1,-1,-1],"loss_changes":[1.106583E1,4.3087316E0,1.4498445E1,0E0,0E0,2.2070656E0,8.827638E0,0E0,0E0,1.7612095E0,7.414589E0,0E0,0E0,8.434631E0,0E0,6.19153E0,0E0,0E0,0E0],"parents":[2147483647,0,0,1,1,2,2,5,5,6,6,9,9,10,10,13,13,15,15],"right_children":[2,4,6,-1,-1,8,10,-1,-1,12,14,-1,-1,16,-1,18,-1,-1,-1],"split_conditions":[4.262181E-2,4.3128766E-2,5.5812642E-2,4.9720374E-3,-1.1920577E-2,4.9673565E-2,9.3278974E-2,1.332932E-3,-1.2587778E-2,2.5203831E-2,5.3025644E-2,-1.0890519E-2,2.3462554E-3,5.03256E-2,-9.263756E-3,4.8167177E-2,-9.207504E-3,1.3140403E-2,-5.344087E-3],"split_indices":[2187,278,4542,0,0,5843,1849,0,0,2582,21,0,0,5125,0,2931,0,0,0],"split_type":[0,0,0,0,0,0,0,0,0,0,0,0,0,0,0,0,0,0,0],"sum_hessian":[4.107032E1,8.087547E0,3.2982773E1,1.2809664E0,6.806581E0,5.7408166E0,2.7241957E1,1.2092131E0,4.5316033E0,3.3081887E0,2.3933767E1,2.2997847E0,1.008404E0,2.2536272E1,1.3974953E0,2.1149183E1,1.3870887E0,1.9694418E1,1.4547671E0],"tree_param":{"num_deleted":"0","num_feature":"6390","num_nodes":"19","size_leaf_vector":"1"}},{"base_weights":[-3.2317974E-2,-1.0720067E0,2.1528412E-1,-1.3073481E-2,1.5410228E-3,-8.9170945E-1,5.615165E-1,6.527262E-3,-1.2003351E-2,8.3129734E-1,-6.836205E-1,-5.587765E-1,1.1463318E0,7.0842127E-3,-1.1962678E-2,7.9145515E-3,-1.1410479E-2,1.3266106E0,-8.391772E-3,1.52353905E-2,-5.005176E-3],"categories":[],"categories_nodes":[],"categories_segments":[],"categories_sizes":[],"default_left":[0,1,0,0,0,0,1,0,0,0,0,0,1,0,0,0,0,1,0,0,0],"id":29,"left_children":[1,3,5,-1,-1,7,9,-1,-1,11,13,15,17,-1,-1,-1,-1,19,-1,-1,-1],"loss_changes":[1.0812066E1,2.5310383E0,1.3543778E1,0E0,0E0,4.8322563E0,9.482186E0,0E0,0E0,1.0389477E1,4.6114054E0,4.665356E0,7.7268257E0,0E0,0E0,0E0,0E0,6.996681E0,0E0,0E0,0E0],"parents":[2147483647,0,0,1,1,2,2,5,5,6,6,9,9,10,10,11,11,12,12,17,17],"right_children":[2,4,6,-1,-1,8,10,-1,-1,12,14,16,18,-1,-1,-1,-1,20,-1,-1,-1],"split_conditions":[4.262181E-2,6.736044E-2,9.835433E-2,-1.3073481E-2,1.5410228E-3,5.8226883E-2,3.925164E-2,6.527262E-3,-1.2003351E-2,9.158623E-2,4.166696E-2,6.299883E-2,4.4002518E-2,7.0842127E-3,-1.1962678E-2,7.9145515E-3,-1.1410479E-2,3.588667E-2,-8.391772E-3,1.52353905E-2,-5.005176E-3],"split_indices":[2187,2496,4953,0,0,2887,1774,0,0,1552,1839,895,4799,0,0,0,0,4326,0,0,0],"split_type":[0,0,0,0,0,0,0,0,0,0,0,0,0,0,0,0,0,0,0,0,0],"sum_hessian":[4.010366E1,7.073262E0,3.30304E1,5.8786473E0,1.1946149E0,7.494166E0,2.5536232E1,1.0624535E0,6.4317126E0,2.1261845E1,4.274388E0,3.7853742E0,1.747647E1,1.0476668E0,3.226721E0,1.0323043E0,2.7530699E0,1.6325972E1,1.1504996E0,1.4887544E1,1.4384282E0],"tree_param":{"num_deleted":"0","num_feature":"6390","num_nodes":"21","size_leaf_vector":"1"}},{"base_weights":[6.2293347E-2,-7.797962E-1,4.0236685E-1,1.2133408E-2,-1.1593528E0,-4.013199E-2,1.2125838E0,1.5699874E-3,-1.3457452E-2,1.3770148E-2,-2.7113706E-1,1.6407903E0,-9.05532E-3,1.219283E-2,-4.7032025E-1,1.7436796E-3,1.8087903E-2,9.035817E-3,-7.368631E-1,9.644747E-3,-9.812544E-3],"categories":[],"categories_nodes":[],"categories_segments":[],"categories_sizes":[],"default_left":[0,0,1,0,0,0,1,0,0,0,0,0,0,0,0,0,0,0,0,0,0],"id":30,"left_children":[1,3,5,-1,7,9,11,-1,-1,-1,13,15,-1,-1,17,-1,-1,-1,19,-1,-1],"loss_changes":[1.1754395E1,1.0358347E1,1.0487812E1,0E0,2.7756014E0,6.855293E0,1.0843399E1,0E0,0E0,0E0,5.8756223E0,1.8865147E0,0E0,0E0,6.6995916E0,0E0,0E0,0E0,6.913105E0,0E0,0E0],"parents":[2147483647,0,0,1,1,2,2,4,4,5,5,6,6,10,10,11,11,14,14,18,18],"right_children":[2,4,6,-1,8,10,12,-1,-1,-1,14,16,-1,-1,18,-1,-1,-1,20,-1,-1],"split_conditions":[7.5624056E-2,5.619718E-2,2.2989823E-2,1.2133408E-2,3.741766E-2,4.8829075E-2,5.2754197E-2,1.5699874E-3,-1.3457452E-2,1.3770148E-2,4.401171E-2,5.5002067E-2,-9.05532E-3,1.219283E-2,6.308725E-2,1.7436796E-3,1.8087903E-2,9.035817E-3,6.18525E-2,9.644747E-3,-9.812544E-3],"split_indices":[1904,3911,1717,0,327,315,2743,0,0,0,3855,2843,0,0,3339,0,0,0,5692,0,0],"split_type":[0,0,0,0,0,0,0,0,0,0,0,0,0,0,0,0,0,0,0,0,0],"sum_hessian":[3.8950195E1,1.083286E1,2.8117336E1,1.3815093E0,9.45135E0,1.8800137E1,9.3172E0,1.1918558E0,8.259495E0,1.9396977E0,1.6860437E1,7.937814E0,1.3793857E0,1.3838847E0,1.5476553E1,1.0253899E0,6.912424E0,2.126329E0,1.33502245E1,1.3067571E0,1.20434675E1],"tree_param":{"num_deleted":"0","num_feature":"6390","num_nodes":"21","size_leaf_vector":"1"}},{"base_weights":[7.6566845E-2,-1.0459169E0,3.3156595E-1,-1.2793642E-2,1.2545292E-3,-7.7074015E-1,5.522775E-1,4.9929693E-3,-1.2055168E-2,7.892491E-1,-6.6183645E-1,-1.008257E-2,9.6234185E-1,7.4954554E-3,-1.189105E-2,1.1970329E0,-7.738931E-3,1.3679807E-2,-8.791581E-3],"categories":[],"categories_nodes":[],"categories_segments":[],"categories_sizes":[],"default_left":[0,1,0,0,0,0,1,0,0,0,0,0,1,0,0,1,0,0,0],"id":31,"left_children":[1,3,5,-1,-1,7,9,-1,-1,11,13,-1,15,-1,-1,17,-1,-1,-1],"loss_changes":[1.2006869E1,2.2884598E0,8.686533E0,0E0,0E0,3.960225E0,8.829335E0,0E0,0E0,8.628478E0,4.8049183E0,0E0,1.0283453E1,0E0,0E0,8.521694E0,0E0,0E0,0E0],"parents":[2147483647,0,0,1,1,2,2,5,5,6,6,9,9,10,10,12,12,15,15],"right_children":[2,4,6,-1,-1,8,10,-1,-1,12,14,-1,16,-1,-1,18,-1,-1,-1],"split_conditions":[5.4076467E-2,4.5971185E-2,4.4167243E-2,-1.2793642E-2,1.2545292E-3,2.9219445E-2,3.925164E-2,4.9929693E-3,-1.2055168E-2,1.5455353E-1,4.3166105E-2,-1.008257E-2,5.8032144E-2,7.4954554E-3,-1.189105E-2,5.1826593E-2,-7.738931E-3,1.3679807E-2,-8.791581E-3],"split_indices":[3915,5336,4484,0,0,1642,1774,0,0,1843,3051,0,4628,0,0,1584,0,0,0],"split_type":[0,0,0,0,0,0,0,0,0,0,0,0,0,0,0,0,0,0,0],"sum_hessian":[3.973641E1,6.7818117E0,3.2954594E1,5.5779614E0,1.2038504E0,5.0818906E0,2.7872704E1,1.2581828E0,3.8237078E0,2.3613703E1,4.2590013E0,1.6503592E0,2.1963345E1,1.0436952E0,3.2153058E0,1.9621603E1,2.3417416E0,1.8444078E1,1.1775234E0],"tree_param":{"num_deleted":"0","num_feature":"6390","num_nodes":"19","size_leaf_vector":"1"}},{"base_weights":[5.2032094E-2,2.9219255E-1,-9.552496E-1,-9.0521824E-1,5.15608E-1,7.459875E-3,-1.3026141E-2,-1.1984739E-2,2.4956167E-3,-5.772596E-1,8.005963E-1,8.782644E-3,-1.0964577E-2,-9.911605E-3,9.9169904E-1,1.2431265E0,-6.237079E-1,-5.0785504E-3,1.4090159E-2,1.724295E-3,-9.964134E-3],"categories":[],"categories_nodes":[],"categories_segments":[],"categories_sizes":[],"default_left":[1,0,0,1,0,0,0,0,0,0,0,0,0,0,1,0,0,0,0,0,0],"id":32,"left_children":[1,3,5,7,9,-1,-1,-1,-1,11,13,-1,-1,-1,15,17,19,-1,-1,-1,-1],"loss_changes":[1.0409763E1,9.717907E0,5.8746386E0,2.2634282E0,9.737473E0,0E0,0E0,0E0,0E0,6.0569754E0,9.214443E0,0E0,0E0,0E0,9.801352E0,6.398308E0,1.2574999E0,0E0,0E0,0E0,0E0],"parents":[2147483647,0,0,1,1,2,2,3,3,4,4,9,9,10,10,14,14,15,15,16,16],"right_children":[2,4,6,8,10,-1,-1,-1,-1,12,14,-1,-1,-1,16,18,20,-1,-1,-1,-1],"split_conditions":[4.5567773E-2,4.312357E-2,6.382515E-2,4.3919638E-2,2.0215191E-1,7.459875E-3,-1.3026141E-2,-1.1984739E-2,2.4956167E-3,1.4756346E-1,7.380591E-2,8.782644E-3,-1.0964577E-2,-9.911605E-3,3.7547305E-2,4.6676334E-2,3.322644E-2,-5.0785504E-3,1.4090159E-2,1.724295E-3,-9.964134E-3],"split_indices":[5246,5269,4991,4620,4953,0,0,0,0,3400,4237,0,0,0,2,1884,4999,0,0,0,0],"split_type":[0,0,0,0,0,0,0,0,0,0,0,0,0,0,0,0,0,0,0,0,0],"sum_hessian":[4.087788E1,3.358122E1,7.29666E0,4.800559E0,2.878066E1,1.0426512E0,6.254009E0,3.7981768E0,1.0023822E0,5.7407174E0,2.3039944E1,1.3275303E0,4.413187E0,1.8170416E0,2.1222902E1,1.8563993E1,2.6589081E0,1.4281617E0,1.7135832E1,1.0191838E0,1.6397243E0],"tree_param":{"num_deleted":"0","num_feature":"6390","num_nodes":"21","size_leaf_vector":"1"}},{"base_weights":[4.519766E-3,-1.1220654E0,3.6522546E-1,2.3194337E-3,-1.3136266E-2,-3.412988E-1,7.340696E-1,9.07441E-3,-8.5577714E-1,1.0165985E0,-1.081319E-2,6.787133E-3,-1.1854796E-2,1.3172228E0,-7.5952373E-3,-3.7881706E-3,1.488187E0,-6.180799E-4,1.752517E-2],"categories":[],"categories_nodes":[],"categories_segments":[],"categories_sizes":[],"default_left":[0,0,0,0,0,0,1,0,0,1,0,0,0,0,0,0,0,0,0],"id":33,"left_children":[1,3,5,-1,-1,7,9,-1,11,13,-1,-1,-1,15,-1,-1,17,-1,-1],"loss_changes":[1.556924E1,2.7150497E0,7.810974E0,0E0,0E0,7.608072E0,1.1038457E1,0E0,4.875016E0,1.0229252E1,0E0,0E0,0E0,4.9560547E0,0E0,0E0,5.8293724E0,0E0,0E0],"parents":[2147483647,0,0,1,1,2,2,5,5,6,6,8,8,9,9,13,13,16,16],"right_children":[2,4,6,-1,-1,8,10,-1,12,14,-1,-1,-1,16,-1,-1,18,-1,-1],"split_conditions":[7.5624056E-2,6.372101E-2,3.9639115E-2,2.3194337E-3,-1.3136266E-2,4.820472E-2,4.570114E-2,9.07441E-3,4.76966E-2,4.6356212E-2,-1.081319E-2,6.787133E-3,-1.1854796E-2,6.1206456E-2,-7.5952373E-3,-3.7881706E-3,5.0062697E-2,-6.180799E-4,1.752517E-2],"split_indices":[1904,663,1625,0,0,33,1628,0,2501,5089,0,0,0,625,0,0,295,0,0],"split_type":[0,0,0,0,0,0,0,0,0,0,0,0,0,0,0,0,0,0,0],"sum_hessian":[3.63049E1,8.292948E0,2.8011955E1,1.0017173E0,7.29123E0,9.633526E0,1.837843E1,2.5880394E0,7.045487E0,1.628414E1,2.0942898E0,1.0588517E0,5.986635E0,1.4147861E1,2.1362789E0,1.1842098E0,1.2963651E1,2.0003047E0,1.0963346E1],"tree_param":{"num_deleted":"0","num_feature":"6390","num_nodes":"19","size_leaf_vector":"1"}},{"base_weights":[3.0360198E-2,-8.8481534E-1,3.6401713E-1,1.1044733E-2,-1.2257564E-2,-9.607074E-3,5.6649923E-1,-3.2071045E-1,8.9741236E-1,-8.178148E-1,9.8475E-3,2.7286084E-2,1.3308251E0,2.486126E-3,-1.0727986E-2,-8.1243026E-1,1.1135329E-2,1.5573404E0,-4.536647E-3,2.1675774E-3,-1.14629865E-2,-3.5947046E-4,1.753081E-2],"categories":[],"categories_nodes":[],"categories_segments":[],"categories_sizes":[],"default_left":[0,0,0,0,0,0,0,1,0,0,0,1,1,0,0,0,0,0,0,0,0,0,0],"id":34,"left_children":[1,3,5,-1,-1,-1,7,9,11,13,-1,15,17,-1,-1,19,-1,21,-1,-1,-1,-1,-1],"loss_changes":[1.2250295E1,8.630052E0,8.412904E0,0E0,0E0,0E0,7.943118E0,5.8802476E0,7.2250996E0,1.955308E0,0E0,7.6754017E0,5.893303E0,0E0,0E0,1.8856869E0,0E0,3.6844788E0,0E0,0E0,0E0,0E0,0E0],"parents":[2147483647,0,0,1,1,2,2,6,6,7,7,8,8,9,9,11,11,12,12,15,15,17,17],"right_children":[2,4,6,-1,-1,-1,8,10,12,14,-1,16,18,-1,-1,20,-1,22,-1,-1,-1,-1,-1],"split_conditions":[7.484206E-2,3.9331283E-2,1.2840171E-1,1.1044733E-2,-1.2257564E-2,-9.607074E-3,4.0189054E-2,4.0777575E-2,3.6201786E-2,6.337876E-2,9.8475E-3,3.6087383E-2,4.9198203E-2,2.486126E-3,-1.0727986E-2,3.3351865E-2,1.1135329E-2,6.944947E-2,-4.536647E-3,2.1675774E-3,-1.14629865E-2,-3.5947046E-4,1.753081E-2],"split_indices":[1904,968,5072,0,0,0,318,17,1625,4888,0,33,6247,0,0,4907,0,2651,0,0,0,0,0],"split_type":[0,0,0,0,0,0,0,0,0,0,0,0,0,0,0,0,0,0,0,0,0,0,0],"sum_hessian":[3.806345E1,9.728268E0,2.8335184E1,1.0957005E0,8.632566E0,3.260293E0,2.507489E1,6.8201776E0,1.8254713E1,5.209864E0,1.6103133E0,6.422918E0,1.1831795E1,1.0101339E0,4.1997304E0,3.7647088E0,2.658209E0,1.06120405E1,1.2197542E0,1.0080492E0,2.7566595E0,1.2504003E0,9.36164E0],"tree_param":{"num_deleted":"0","num_feature":"6390","num_nodes":"23","size_leaf_vector":"1"}},{"base_weights":[1.2584443E-2,-1.5951632E-1,1.4777001E-2,1.3991407E-2,-2.996512E-1,-4.5499605E-1,8.7278503E-1,1.2396499E-2,-5.748827E-1,1.3347499E-2,1.0744253E-3,1.2030678E-2,-7.035972E-1,4.0991404E-3,-9.293331E-3],"categories":[],"categories_nodes":[],"categories_segments":[],"categories_sizes":[],"default_left":[1,0,0,0,1,0,0,0,0,0,0,0,0,0,0],"id":35,"left_children":[1,3,-1,-1,5,7,9,-1,11,-1,-1,-1,13,-1,-1],"loss_changes":[1.0364696E1,8.468273E0,0E0,0E0,6.705161E0,7.0594864E0,1.4104109E0,0E0,7.6796217E0,0E0,0E0,0E0,7.5382023E0,0E0,0E0],"parents":[2147483647,0,0,1,1,4,4,5,5,6,6,8,8,12,12],"right_children":[2,4,-1,-1,6,8,10,-1,12,-1,-1,-1,14,-1,-1],"split_conditions":[4.687366E-2,3.6224734E-2,1.4777001E-2,1.3991407E-2,4.4301633E-2,1.4068559E-1,9.232102E-2,1.2396499E-2,1.5387274E-1,1.3347499E-2,1.0744253E-3,1.2030678E-2,6.6424176E-2,4.0991404E-3,-9.293331E-3],"split_indices":[3054,33,0,0,4825,2260,5140,0,5767,0,0,0,5758,0,0],"split_type":[0,0,0,0,0,0,0,0,0,0,0,0,0,0,0],"sum_hessian":[3.917084E1,3.5850735E1,3.3201065E0,2.2162414E0,3.3634495E1,3.0239729E1,3.3947651E0,1.3808388E0,2.885889E1,1.6530092E0,1.741756E0,1.3847232E0,2.7474167E1,4.4933686E0,2.2980799E1],"tree_param":{"num_deleted":"0","num_feature":"6390","num_nodes":"15","size_leaf_vector":"1"}},{"base_weights":[-9.6936405E-2,2.1479149E-1,-9.349668E-1,4.320954E-1,-1.0138439E-2,-1.169764E0,6.9583673E-3,-1.129887E-2,6.8421453E-1,-1.3461954E-2,2.257819E-3,9.474834E-1,-7.2175574E-1,-9.506191E-3,1.1595147E0,2.3600971E-3,-1.0853218E-2,-4.089586E-3,1.3852954E-2],"categories":[],"categories_nodes":[],"categories_segments":[],"categories_sizes":[],"default_left":[1,1,1,0,0,1,0,0,1,0,0,0,0,0,0,0,0,0,0],"id":36,"left_children":[1,3,5,7,-1,9,-1,-1,11,-1,-1,13,15,-1,17,-1,-1,-1,-1],"loss_changes":[1.0886597E1,8.6152115E0,5.1320286E0,1.1297827E1,0E0,2.822937E0,0E0,0E0,9.432045E0,0E0,0E0,9.287884E0,1.7517703E0,0E0,7.2050343E0,0E0,0E0,0E0,0E0],"parents":[2147483647,0,0,1,1,2,2,3,3,5,5,8,8,11,11,12,12,14,14],"right_children":[2,4,6,8,-1,10,-1,-1,12,-1,-1,14,16,-1,18,-1,-1,-1,-1],"split_conditions":[2.7782632E-2,4.079347E-2,5.0721526E-2,5.7102554E-2,-1.0138439E-2,5.4143548E-2,6.9583673E-3,-1.129887E-2,4.9116127E-2,-1.3461954E-2,2.257819E-3,2.1493101E-1,3.619395E-2,-9.506191E-3,5.1656786E-2,2.3600971E-3,-1.0853218E-2,-4.089586E-3,1.3852954E-2],"split_indices":[318,3970,4070,5024,0,1086,0,0,0,0,0,133,335,0,285,0,0,0,0],"split_type":[0,0,0,0,0,0,0,0,0,0,0,0,0,0,0,0,0,0,0],"sum_hessian":[3.990445E1,2.9627426E1,1.0277021E1,2.572573E1,3.901696E0,9.230722E0,1.0462995E0,3.091437E0,2.2634295E1,8.226103E0,1.0046194E0,1.9339128E1,3.2951653E0,1.593222E0,1.7745907E1,1.0032053E0,2.29196E0,2.130972E0,1.5614935E1],"tree_param":{"num_deleted":"0","num_feature":"6390","num_nodes":"19","size_leaf_vector":"1"}},{"base_weights":[-2.7241947E-2,1.4681077E-2,-2.1228974E-1,1.1125063E0,-4.0883386E-1,-3.8085837E-4,1.5110145E-2,7.453032E-1,-5.995876E-1,1.40862875E-2,-8.290159E-3,1.2221028E-2,-7.359506E-1,-9.255922E-1,7.413678E-1,2.5941879E-3,-1.1968584E-2,1.30107105E-2,-3.6748662E-3],"categories":[],"categories_nodes":[],"categories_segments":[],"categories_sizes":[],"default_left":[0,0,0,0,0,0,0,1,0,0,0,0,1,0,1,0,0,0,0],"id":37,"left_children":[1,-1,3,5,7,-1,-1,9,11,-1,-1,-1,13,15,17,-1,-1,-1,-1],"loss_changes":[1.1525666E1,0E0,1.00724945E1,2.3687968E0,7.689179E0,0E0,0E0,6.505847E0,8.049808E0,0E0,0E0,0E0,8.363758E0,8.260416E0,2.7576246E0,0E0,0E0,0E0,0E0],"parents":[2147483647,0,0,2,2,3,3,4,4,7,7,8,8,12,12,13,13,14,14],"right_children":[2,-1,4,6,8,-1,-1,10,12,-1,-1,-1,14,16,18,-1,-1,-1,-1],"split_conditions":[1.2578568E-1,1.4681077E-2,4.8829075E-2,3.7639536E-2,4.2929173E-2,-3.8085837E-4,1.5110145E-2,3.9946742E-2,6.379142E-2,1.40862875E-2,-8.290159E-3,1.2221028E-2,4.5866013E-2,1.0006256E-1,6.377138E-2,2.5941879E-3,-1.1968584E-2,1.30107105E-2,-3.6748662E-3],"split_indices":[3120,0,315,2,5758,0,0,1774,2369,0,0,0,4126,2501,1165,0,0,0,0],"split_type":[0,0,0,0,0,0,0,0,0,0,0,0,0,0,0,0,0,0,0],"sum_hessian":[3.9526024E1,3.5891175E0,3.593691E1,4.040665E0,3.1896242E1,1.2721328E0,2.7685325E0,4.1116934E0,2.7784548E1,2.966873E0,1.1448203E0,1.3804746E0,2.6404074E1,2.3731194E1,2.672881E0,4.4286337E0,1.9302559E1,1.6610868E0,1.0117942E0],"tree_param":{"num_deleted":"0","num_feature":"6390","num_nodes":"19","size_leaf_vector":"1"}},{"base_weights":[-2.210826E-3,-1.673966E-1,1.4286754E-2,1.1594125E-2,-3.391645E-1,-5.2264076E-1,1.0742711E-2,1.1758253E-2,-6.512779E-1,1.1319537E-2,-7.6908946E-1,-8.938597E-3,1.0846095E-2],"categories":[],"categories_nodes":[],"categories_segments":[],"categories_sizes":[],"default_left":[1,0,0,0,1,0,0,0,0,0,1,0,0],"id":38,"left_children":[1,3,-1,-1,5,7,-1,-1,9,-1,11,-1,-1],"loss_changes":[9.220827E0,8.3611765E0,0E0,0E0,8.789614E0,7.0484796E0,0E0,0E0,6.6215744E0,0E0,7.046214E0,0E0,0E0],"parents":[2147483647,0,0,1,1,4,4,5,5,8,8,10,10],"right_children":[2,4,-1,-1,6,8,-1,-1,10,-1,12,-1,-1],"split_conditions":[4.687366E-2,5.4462396E-2,1.4286754E-2,1.1594125E-2,5.0959576E-2,6.386024E-2,1.0742711E-2,1.1758253E-2,5.8076177E-2,1.1319537E-2,4.584467E-2,-8.938597E-3,1.0846095E-2],"split_indices":[3054,2373,0,0,3339,1764,0,0,5178,0,2647,0,0],"split_type":[0,0,0,0,0,0,0,0,0,0,0,0,0],"sum_hessian":[3.699963E1,3.396197E1,3.0376594E0,3.233689E0,3.0728283E1,2.7755598E1,2.9726853E0,1.3809907E0,2.6374607E1,1.1010218E0,2.5273586E1,2.4164873E1,1.108712E0],"tree_param":{"num_deleted":"0","num_feature":"6390","num_nodes":"13","size_leaf_vector":"1"}},{"base_weights":[1.4116609E-1,-4.966238E-2,1.3216219E0,1.4359288E-2,-2.0575006E-1,1.3904226E-3,1.5542705E-2,1.0607501E0,-3.8938484E-1,4.865437E-4,1.4329844E-2,-5.12108E-1,1.22236805E-2,1.1722495E-2,-6.4325494E-1,-7.84118E-3,9.609667E-3],"categories":[],"categories_nodes":[],"categories_segments":[],"categories_sizes":[],"default_left":[1,0,0,0,0,0,0,0,1,0,0,0,0,0,1,0,0],"id":39,"left_children":[1,3,5,-1,7,-1,-1,9,11,-1,-1,13,-1,-1,15,-1,-1],"loss_changes":[9.082199E0,8.508772E0,1.326333E0,0E0,8.071034E0,0E0,0E0,1.6023068E0,6.4588966E0,0E0,0E0,6.9629045E0,0E0,0E0,6.792158E0,0E0,0E0],"parents":[2147483647,0,0,1,1,2,2,4,4,7,7,8,8,11,11,14,14],"right_children":[2,4,6,-1,8,-1,-1,10,12,-1,-1,14,-1,-1,16,-1,-1],"split_conditions":[4.5303132E-2,4.459387E-2,4.9325086E-2,1.4359288E-2,2.6486218E-1,1.3904226E-3,1.5542705E-2,1.1752843E-1,6.045926E-2,4.865437E-4,1.4329844E-2,3.620118E-2,1.22236805E-2,1.1722495E-2,4.5926217E-2,-7.84118E-3,9.609667E-3],"split_indices":[5790,3855,4118,0,3165,0,0,3005,2260,0,0,33,0,0,2959,0,0],"split_type":[0,0,0,0,0,0,0,0,0,0,0,0,0,0,0,0,0],"sum_hessian":[3.902655E1,3.4420223E1,4.6063266E0,2.493016E0,3.1927206E1,1.0198684E0,3.5864582E0,3.4381835E0,2.8489023E1,1.2285357E0,2.209648E0,2.710727E1,1.3817533E0,1.384702E0,2.5722567E1,2.4116196E1,1.6063727E0],"tree_param":{"num_deleted":"0","num_feature":"6390","num_nodes":"17","size_leaf_vector":"1"}},{"base_weights":[4.85555E-2,-1.3738568E-1,1.46668255E-2,-8.5470766E-1,1.4850529E-1,-1.0993218E0,7.307992E-3,3.109751E-1,-1.0728678E-2,1.7980305E-5,-1.2855669E-2,-1.0261135E-2,4.7329044E-1,7.020819E-1,-5.5385476E-1,9.0307435E-3,-9.423364E-3,7.7396873E-3,-1.1286783E-2],"categories":[],"categories_nodes":[],"categories_segments":[],"categories_sizes":[],"default_left":[1,0,0,1,1,0,0,0,0,0,0,0,1,1,0,0,0,0,0],"id":40,"left_children":[1,3,-1,5,7,9,-1,11,-1,-1,-1,-1,13,15,17,-1,-1,-1,-1],"loss_changes":[1.1051642E1,7.7746596E0,0E0,4.9824834E0,5.793968E0,1.9986353E0,0E0,5.9247446E0,0E0,0E0,0E0,0E0,5.8016176E0,7.2226753E0,4.502775E0,0E0,0E0,0E0,0E0],"parents":[2147483647,0,0,1,1,3,3,4,4,5,5,7,7,12,12,13,13,14,14],"right_children":[2,4,-1,6,8,10,-1,12,-1,-1,-1,-1,14,16,18,-1,-1,-1,-1],"split_conditions":[4.0770024E-2,7.484206E-2,1.46668255E-2,4.4021387E-2,4.4671733E-2,3.4855004E-2,7.307992E-3,1.285048E-1,-1.0728678E-2,1.7980305E-5,-1.2855669E-2,-1.0261135E-2,4.1029412E-2,3.8290035E-2,1.4626351E-1,9.0307435E-3,-9.423364E-3,7.7396873E-3,-1.1286783E-2],"split_indices":[3120,1904,0,106,2198,1861,0,562,0,0,0,0,259,2829,2894,0,0,0,0],"split_type":[0,0,0,0,0,0,0,0,0,0,0,0,0,0,0,0,0,0,0],"sum_hessian":[4.0147617E1,3.62922E1,3.855418E0,9.775387E0,2.6516811E1,8.734465E0,1.0409222E0,2.4061487E1,2.455325E0,1.4069027E0,7.327562E0,2.0286396E0,2.2032846E1,1.8277988E1,3.7548583E0,1.668897E1,1.5890193E0,1.0297421E0,2.725116E0],"tree_param":{"num_deleted":"0","num_feature":"6390","num_nodes":"19","size_leaf_vector":"1"}},{"base_weights":[1.4435778E-2,-1.5012647E-1,1.4117876E-2,-3.228921E-1,1.0789238E0,6.754205E-1,-5.5248207E-1,3.316665E-5,1.4625367E-2,-4.7697076E-3,1.0815263E0,7.0878994E-1,-8.0680317E-1,1.3619319E-2,9.031642E-4,1.3252784E-2,-7.928832E-3,-1.0140984E0,8.325622E-3,7.656145E-3,-1.17439795E-2],"categories":[],"categories_nodes":[],"categories_segments":[],"categories_sizes":[],"default_left":[1,1,0,0,0,0,0,0,0,0,1,1,1,0,0,0,0,0,0,0,0],"id":41,"left_children":[1,3,-1,5,7,9,11,-1,-1,-1,13,15,17,-1,-1,-1,-1,19,-1,-1,-1],"loss_changes":[9.391309E0,8.123498E0,0E0,7.907881E0,1.95225E0,3.6030018E0,9.321469E0,0E0,0E0,0E0,1.3177605E0,5.780992E0,8.717395E0,0E0,0E0,0E0,0E0,6.895233E0,0E0,0E0,0E0],"parents":[2147483647,0,0,1,1,3,3,4,4,5,5,6,6,10,10,11,11,12,12,17,17],"right_children":[2,4,-1,6,8,10,12,-1,-1,-1,14,16,18,-1,-1,-1,-1,20,-1,-1,-1],"split_conditions":[4.0770024E-2,4.5040976E-2,1.4117876E-2,6.6424176E-2,1.2164033E-1,4.572616E-2,1.3146818E-1,3.316665E-5,1.4625367E-2,-4.7697076E-3,3.8617138E-2,4.273615E-2,4.358142E-2,1.3619319E-2,9.031642E-4,1.3252784E-2,-7.928832E-3,2.4929898E-2,8.325622E-3,7.656145E-3,-1.17439795E-2],"split_indices":[3120,2849,0,5758,5585,4925,3165,0,0,0,335,1544,3195,0,0,0,0,1642,0,0,0],"split_type":[0,0,0,0,0,0,0,0,0,0,0,0,0,0,0,0,0,0,0,0,0],"sum_hessian":[3.8918713E1,3.5616787E1,3.3019264E0,3.1873644E1,3.743143E0,5.596567E0,2.6277077E1,1.249193E0,2.4939501E0,1.4128567E0,4.18371E0,4.10951E0,2.2167566E1,2.9696183E0,1.214092E0,2.9967196E0,1.1127906E0,2.001776E1,2.1498067E0,1.3420138E0,1.8675745E1],"tree_param":{"num_deleted":"0","num_feature":"6390","num_nodes":"21","size_leaf_vector":"1"}},{"base_weights":[9.411147E-2,-9.975296E-1,3.293453E-1,2.4109208E-3,-1.2360601E-2,-1.0465935E-2,5.790998E-1,-1.0203953E-2,7.5026864E-1,9.2503285E-1,-1.0250654E-2,-9.110579E-3,1.0883094E0,-8.24543E-3,1.2258197E-2],"categories":[],"categories_nodes":[],"categories_segments":[],"categories_sizes":[],"default_left":[0,0,0,0,0,0,0,0,1,0,0,0,0,0,0],"id":42,"left_children":[1,3,5,-1,-1,-1,7,-1,9,11,-1,-1,13,-1,-1],"loss_changes":[1.0408007E1,2.427278E0,1.1961815E1,0E0,0E0,0E0,8.599043E0,0E0,9.146128E0,8.360369E0,0E0,0E0,7.068054E0,0E0,0E0],"parents":[2147483647,0,0,1,1,2,2,6,6,8,8,9,9,12,12],"right_children":[2,4,6,-1,-1,-1,8,-1,10,12,-1,-1,14,-1,-1],"split_conditions":[4.312357E-2,6.3626E-2,4.294882E-2,2.4109208E-3,-1.2360601E-2,-1.0465935E-2,4.6942808E-2,-1.0203953E-2,5.6123033E-2,7.380591E-2,-1.0250654E-2,-9.110579E-3,6.8359785E-2,-8.24543E-3,1.2258197E-2],"split_indices":[5269,583,4953,0,0,0,3915,0,2789,4237,0,0,1548,0,0],"split_type":[0,0,0,0,0,0,0,0,0,0,0,0,0,0,0],"sum_hessian":[3.825168E1,6.2069097E0,3.204477E1,1.0005572E0,5.206352E0,4.4328685E0,2.76119E1,2.189615E0,2.5422285E1,2.3580017E1,1.8422687E0,1.5516325E0,2.2028385E1,1.1422833E0,2.08861E1],"tree_param":{"num_deleted":"0","num_feature":"6390","num_nodes":"15","size_leaf_vector":"1"}},{"base_weights":[5.0320346E-2,-9.673441E-1,2.6896873E-1,-1.2155922E-2,1.5292942E-3,-7.838607E-1,5.13321E-1,1.6560352E-3,-1.0203073E-2,8.6318296E-1,-3.8449058E-1,-9.715823E-3,1.096683E0,1.053132E-2,-7.492721E-1,-8.473977E-3,1.2778168E0,-9.519123E-1,2.5817666E-3,1.4345814E-2,-4.296866E-3,-1.22214295E-2,9.7024906E-4],"categories":[],"categories_nodes":[],"categories_segments":[],"categories_sizes":[],"default_left":[0,1,0,0,0,0,1,0,0,0,0,0,0,0,1,0,1,1,0,0,0,0,0],"id":43,"left_children":[1,3,5,-1,-1,7,9,-1,-1,11,13,-1,15,-1,17,-1,19,21,-1,-1,-1,-1,-1],"loss_changes":[8.957174E0,2.1688142E0,8.880583E0,0E0,0E0,1.6514654E0,8.92343E0,0E0,0E0,9.6297455E0,5.1740856E0,0E0,7.492893E0,0E0,1.7265935E0,0E0,5.180439E0,1.890832E0,0E0,0E0,0E0,0E0,0E0],"parents":[2147483647,0,0,1,1,2,2,5,5,6,6,9,9,10,10,12,12,14,14,16,16,17,17],"right_children":[2,4,6,-1,-1,8,10,-1,-1,12,14,-1,16,-1,18,-1,20,22,-1,-1,-1,-1,-1],"split_conditions":[5.4076467E-2,4.505824E-2,4.3753717E-2,-1.2155922E-2,1.5292942E-3,8.015675E-2,3.4774907E-2,1.6560352E-3,-1.0203073E-2,3.9885286E-2,4.4423535E-2,-9.715823E-3,4.2247593E-2,1.053132E-2,5.9526518E-2,-8.473977E-3,5.20517E-2,3.927709E-2,2.5817666E-3,1.4345814E-2,-4.296866E-3,-1.22214295E-2,9.7024906E-4],"split_indices":[3915,5336,2187,0,0,2980,2835,0,0,4953,2922,0,929,0,5805,0,1636,4910,0,0,0,0,0],"split_type":[0,0,0,0,0,0,0,0,0,0,0,0,0,0,0,0,0,0,0,0,0,0,0],"sum_hessian":[3.8085712E1,6.1300697E0,3.1955645E1,4.9484315E0,1.1816382E0,5.6036296E0,2.6352015E1,1.176988E0,4.426642E0,1.8990362E1,7.3616524E0,1.7870862E0,1.7203276E1,1.1079892E0,6.253663E0,1.1527447E0,1.6050531E1,5.2523265E0,1.0013369E0,1.4847253E1,1.2032785E0,4.045091E0,1.2072351E0],"tree_param":{"num_deleted":"0","num_feature":"6390","num_nodes":"23","size_leaf_vector":"1"}},{"base_weights":[-7.873238E-2,-2.6497194E-1,1.4122953E-2,7.1006435E-1,-4.9802363E-1,1.0846269E0,-5.095042E-3,8.995704E-3,-6.543808E-1,1.4801971E-2,-3.0423277E-3,6.7885E-1,-8.667524E-1,-3.4469618E-3,1.1620988E-2,-1.0425549E0,1.1629969E-2,6.0151685E-3,-1.1938691E-2],"categories":[],"categories_nodes":[],"categories_segments":[],"categories_sizes":[],"default_left":[1,0,0,1,0,1,0,0,0,0,0,0,1,0,0,0,0,0,0],"id":44,"left_children":[1,3,-1,5,7,9,-1,-1,11,-1,-1,13,15,-1,-1,17,-1,-1,-1],"loss_changes":[1.1389229E1,8.557754E0,0E0,3.9225206E0,7.0847654E0,3.7265491E0,0E0,0E0,8.322369E0,0E0,0E0,2.5343776E0,9.776888E0,0E0,0E0,6.3441544E0,0E0,0E0,0E0],"parents":[2147483647,0,0,1,1,3,3,4,4,5,5,8,8,11,11,12,12,15,15],"right_children":[2,4,-1,6,8,10,-1,-1,12,-1,-1,14,16,-1,-1,18,-1,-1,-1],"split_conditions":[4.0770024E-2,4.9349427E-2,1.4122953E-2,4.8780095E-2,1.1874974E-1,4.593615E-2,-5.095042E-3,8.995704E-3,3.835396E-2,1.4801971E-2,-3.0423277E-3,9.041449E-2,5.3910088E-2,-3.4469618E-3,1.1620988E-2,1.5182257E-1,1.1629969E-2,6.0151685E-3,-1.1938691E-2],"split_indices":[3120,33,0,4511,4755,2922,0,0,236,0,0,882,1478,0,0,5063,0,0,0],"split_type":[0,0,0,0,0,0,0,0,0,0,0,0,0,0,0,0,0,0,0],"sum_hessian":[3.86668E1,3.510432E1,3.5624814E0,6.377109E0,2.8727213E1,4.9633703E0,1.4137386E0,2.4122324E0,2.631498E1,3.811911E0,1.1514595E0,3.3139672E0,2.3001013E1,1.1547844E0,2.1591828E0,2.161522E1,1.3857944E0,1.5709653E0,2.0044254E1],"tree_param":{"num_deleted":"0","num_feature":"6390","num_nodes":"19","size_leaf_vector":"1"}},{"base_weights":[-3.271646E-2,1.3808515E-2,-2.188138E-1,-4.0155056E-1,1.3642359E-2,8.628845E-1,-5.7027763E-1,-3.55282E-3,1.4098455E-2,-7.319016E-1,9.062954E-3,-8.6969763E-1,1.1055064E-2,6.9360933E-3,-9.94036E-3],"categories":[],"categories_nodes":[],"categories_segments":[],"categories_sizes":[],"default_left":[0,0,1,0,0,0,1,0,0,1,0,0,0,0,0],"id":45,"left_children":[1,-1,3,5,-1,7,9,-1,-1,11,-1,13,-1,-1,-1],"loss_changes":[1.094035E1,0E0,1.1135113E1,7.656984E0,0E0,3.4004185E0,7.8781643E0,0E0,0E0,8.000712E0,0E0,5.8254795E0,0E0,0E0,0E0],"parents":[2147483647,0,0,2,2,3,3,5,5,6,6,9,9,11,11],"right_children":[2,-1,4,6,-1,8,10,-1,-1,12,-1,14,-1,-1,-1],"split_conditions":[4.8829075E-2,1.3808515E-2,5.052642E-2,1.1294786E-1,1.3642359E-2,4.312357E-2,4.358142E-2,-3.55282E-3,1.4098455E-2,4.6896677E-2,9.062954E-3,6.299883E-2,1.1055064E-2,6.9360933E-3,-9.94036E-3],"split_indices":[315,0,3094,2493,0,1864,3195,0,0,3899,0,895,0,0,0],"split_type":[0,0,0,0,0,0,0,0,0,0,0,0,0,0,0],"sum_hessian":[3.944001E1,3.8413832E0,3.559863E1,3.258372E1,3.0149052E0,3.3517485E0,2.9231974E1,1.1472005E0,2.204548E0,2.6802526E1,2.4294484E0,2.5422632E1,1.3798938E0,1.5357122E0,2.3886919E1],"tree_param":{"num_deleted":"0","num_feature":"6390","num_nodes":"15","size_leaf_vector":"1"}},{"base_weights":[5.555568E-2,-1.0752926E-2,2.543026E-1,4.3968827E-1,-9.71211E-3,-1.0536818E-2,6.010954E-1,1.0033859E0,-5.58251E-2,1.3452953E0,-1.9884625E-1,-3.3380562E-1,1.1949799E-2,1.6301023E-2,-3.1988828E-3,-9.192942E-3,4.1913344E-3,9.201115E-3,-6.6529685E-3],"categories":[],"categories_nodes":[],"categories_segments":[],"categories_sizes":[],"default_left":[0,0,1,0,0,0,1,1,1,1,0,0,0,0,0,0,0,0,0],"id":46,"left_children":[1,-1,3,5,-1,-1,7,9,11,13,15,17,-1,-1,-1,-1,-1,-1,-1],"loss_changes":[9.370678E0,0E0,8.432152E0,8.1763935E0,0E0,0E0,7.6876764E0,7.651184E0,4.541802E0,7.2151737E0,2.5440137E0,4.989202E0,0E0,0E0,0E0,0E0,0E0,0E0,0E0],"parents":[2147483647,0,0,2,2,3,3,6,6,7,7,8,8,9,9,10,10,11,11],"right_children":[2,-1,4,6,-1,-1,8,10,12,14,16,18,-1,-1,-1,-1,-1,-1,-1],"split_conditions":[4.2677645E-2,-1.0752926E-2,4.4504028E-2,4.0427215E-2,-9.71211E-3,-1.0536818E-2,2.1392142E-2,3.856146E-2,5.032454E-2,3.9295718E-2,6.526141E-2,1.1460423E-1,1.1949799E-2,1.6301023E-2,-3.1988828E-3,-9.192942E-3,4.1913344E-3,9.201115E-3,-6.6529685E-3],"split_indices":[5269,0,3270,4953,0,0,2927,1774,5140,5379,2841,1110,0,0,0,0,0,0,0],"split_type":[0,0,0,0,0,0,0,0,0,0,0,0,0,0,0,0,0,0,0],"sum_hessian":[3.947663E1,5.2416806E0,3.423495E1,3.0293604E1,3.9413474E0,2.4156296E0,2.7877974E1,1.6962767E1,1.0915209E1,1.311416E1,3.848606E0,9.530308E0,1.3849006E0,1.1216754E1,1.8974056E0,1.5518553E0,2.2967508E0,1.6214076E0,7.9089003E0],"tree_param":{"num_deleted":"0","num_feature":"6390","num_nodes":"19","size_leaf_vector":"1"}},{"base_weights":[3.736196E-2,-8.760989E-1,3.0862898E-1,6.8329046E-3,-1.143112E-2,-3.356041E-1,7.095376E-1,-6.804893E-1,1.2720408E-2,-9.884897E-3,9.2921907E-1,6.8716165E-3,-9.62167E-1,-6.5190294E-3,1.1259804E0,-1.2308718E-2,6.525541E-3,1.3117716E0,-5.155521E-3,-2.152306E-3,1.5150703E-2],"categories":[],"categories_nodes":[],"categories_segments":[],"categories_sizes":[],"default_left":[0,0,0,0,0,1,0,0,0,0,0,0,1,0,1,0,0,0,0,0,0],"id":47,"left_children":[1,3,5,-1,-1,7,9,11,-1,-1,13,-1,15,-1,17,-1,-1,19,-1,-1,-1],"loss_changes":[1.0436968E1,4.801139E0,8.599601E0,0E0,0E0,8.127429E0,8.4822035E0,5.0664687E0,0E0,0E0,6.479892E0,0E0,5.098215E0,0E0,5.797529E0,0E0,0E0,5.0965137E0,0E0,0E0,0E0],"parents":[2147483647,0,0,1,1,2,2,5,5,6,6,7,7,10,10,12,12,14,14,17,17],"right_children":[2,4,6,-1,-1,8,10,12,-1,-1,14,-1,16,-1,18,-1,-1,20,-1,-1,-1],"split_conditions":[7.5624056E-2,5.6880146E-2,3.9639115E-2,6.8329046E-3,-1.143112E-2,5.194578E-2,6.1492436E-2,7.9435594E-2,1.2720408E-2,-9.884897E-3,6.064616E-2,6.8716165E-3,4.1613262E-2,-6.5190294E-3,5.224717E-2,-1.2308718E-2,6.525541E-3,4.543046E-2,-5.155521E-3,-2.152306E-3,1.5150703E-2],"split_indices":[1904,3911,1625,0,0,1948,5742,188,0,0,3764,0,3695,0,5089,0,0,5337,0,0,0],"split_type":[0,0,0,0,0,0,0,0,0,0,0,0,0,0,0,0,0,0,0,0,0],"sum_hessian":[4.0028713E1,8.654847E0,3.1373867E1,1.0373842E0,7.6174626E0,1.2097268E1,1.92766E1,1.0435315E1,1.661953E0,1.807315E0,1.7469286E1,1.5363292E0,8.898986E0,1.6773529E0,1.5791932E1,7.8331885E0,1.0657971E0,1.4366765E1,1.4251667E0,1.6811032E0,1.2685662E1],"tree_param":{"num_deleted":"0","num_feature":"6390","num_nodes":"21","size_leaf_vector":"1"}},{"base_weights":[1.3545309E-3,-7.9180586E-1,2.999568E-1,1.0574949E-2,-1.0944234E0,-1.0580921E-2,4.5880026E-1,2.1336456E-4,-1.2704249E-2,6.081887E-1,-1.0368271E-2,-9.532501E-3,7.6347333E-1,9.740884E-1,-7.540107E-3,1.1374096E-2,-8.514387E-3],"categories":[],"categories_nodes":[],"categories_segments":[],"categories_sizes":[],"default_left":[0,0,0,0,0,0,1,0,0,0,0,0,1,1,0,0,0],"id":48,"left_children":[1,3,5,-1,7,-1,9,-1,-1,11,-1,-1,13,15,-1,-1,-1],"loss_changes":[9.734324E0,7.4485893E0,6.92598E0,0E0,2.0207663E0,0E0,6.7586823E0,0E0,0E0,6.926936E0,0E0,0E0,8.344139E0,7.332121E0,0E0,0E0,0E0],"parents":[2147483647,0,0,1,1,2,2,4,4,6,6,9,9,12,12,13,13],"right_children":[2,4,6,-1,8,-1,10,-1,-1,12,-1,-1,14,16,-1,-1,-1],"split_conditions":[7.5624056E-2,6.604933E-2,6.0760766E-2,1.0574949E-2,4.236992E-2,-1.0580921E-2,4.1957658E-2,2.1336456E-4,-1.2704249E-2,1.21074125E-1,-1.0368271E-2,-9.532501E-3,4.700166E-2,4.3609872E-2,-7.540107E-3,1.1374096E-2,-8.514387E-3],"split_indices":[1904,2894,4594,0,2182,0,1584,0,0,5025,0,0,3051,1096,0,0,0],"split_type":[0,0,0,0,0,0,0,0,0,0,0,0,0,0,0,0,0],"sum_hessian":[3.9098114E1,1.024177E1,2.8856346E1,1.0894754E0,9.152294E0,2.4289088E0,2.6427437E1,1.3667239E0,7.78557E0,2.456696E1,1.8604776E0,1.757363E0,2.2809597E1,2.0344084E1,2.465512E0,1.9019445E1,1.3246387E0],"tree_param":{"num_deleted":"0","num_feature":"6390","num_nodes":"17","size_leaf_vector":"1"}},{"base_weights":[-1.2143839E-1,-2.9524085E-1,1.3473855E-2,1.2255518E-2,-4.593664E-1,-6.126363E-1,1.0618705E-2,6.5625095E-1,-7.675033E-1,1.231737E-2,-3.5170848E-3,1.0982669E-2,-8.868605E-1,1.0794484E-2,-1.0159153E-2],"categories":[],"categories_nodes":[],"categories_segments":[],"categories_sizes":[],"default_left":[1,0,0,0,1,0,0,0,0,0,0,0,0,0,0],"id":49,"left_children":[1,3,-1,-1,5,7,-1,9,11,-1,-1,-1,13,-1,-1],"loss_changes":[1.0247507E1,9.379133E0,0E0,0E0,8.25337E0,6.449498E0,0E0,2.6550226E0,7.0818214E0,0E0,0E0,0E0,7.7784767E0,0E0,0E0],"parents":[2147483647,0,0,1,1,4,4,5,5,7,7,8,8,12,12],"right_children":[2,4,-1,-1,6,8,-1,10,12,-1,-1,-1,14,-1,-1],"split_conditions":[4.0770024E-2,4.9668793E-2,1.3473855E-2,1.2255518E-2,5.698305E-2,6.276175E-2,1.0618705E-2,4.51344E-2,1.8135667E-1,1.231737E-2,-3.5170848E-3,1.0982669E-2,6.2250394E-2,1.0794484E-2,-1.0159153E-2],"split_indices":[3120,93,0,0,5431,4,0,4816,2633,0,0,0,895,0,0],"split_type":[0,0,0,0,0,0,0,0,0,0,0,0,0,0,0],"sum_hessian":[3.758313E1,3.4321003E1,3.2621279E0,2.7132044E0,3.1607798E1,2.9257301E1,2.350497E0,2.8302677E0,2.6427032E1,1.6603143E0,1.1699533E0,1.0958223E0,2.5331211E1,1.1065953E0,2.4224615E1],"tree_param":{"num_deleted":"0","num_feature":"6390","num_nodes":"15","size_leaf_vector":"1"}},{"base_weights":[1.5613553E-2,2.1332188E-1,-1.046228E-2,1.4680776E-2,4.1369487E-2,-1.3877246E-1,1.3804827E-2,8.949013E-2,-1.207543E-2,-9.959468E-3,4.0429738E-1,-9.1961995E-3,7.048618E-3],"categories":[],"categories_nodes":[],"categories_segments":[],"categories_sizes":[],"default_left":[1,0,0,0,1,1,0,0,0,0,0,0,0],"id":50,"left_children":[1,3,-1,-1,5,7,-1,9,-1,-1,11,-1,-1],"loss_changes":[8.416769E0,7.2175484E0,0E0,0E0,7.596576E0,6.930575E0,0E0,8.595012E0,0E0,0E0,8.326581E0,0E0,0E0],"parents":[2147483647,0,0,1,1,4,4,5,5,7,7,10,10],"right_children":[2,4,-1,-1,6,8,-1,10,-1,-1,12,-1,-1],"split_conditions":[4.5419388E-2,4.675681E-2,-1.046228E-2,1.4680776E-2,4.6450496E-2,4.0727716E-2,1.3804827E-2,4.4167243E-2,-1.207543E-2,-9.959468E-3,8.994046E-2,-9.1961995E-3,7.048618E-3],"split_indices":[230,3855,0,0,5790,5273,0,4484,0,0,2998,0,0],"split_type":[0,0,0,0,0,0,0,0,0,0,0,0,0],"sum_hessian":[3.8029167E1,3.2733498E1,5.295672E0,3.036695E0,2.9696802E1,2.696566E1,2.7311404E0,2.2975037E1,3.9906237E0,4.678876E0,1.8296162E1,3.0041087E0,1.5292053E1],"tree_param":{"num_deleted":"0","num_feature":"6390","num_nodes":"13","size_leaf_vector":"1"}},{"base_weights":[4.411835E-2,3.066946E-1,-8.7678474E-1,-5.277499E-1,6.991441E-1,6.2671825E-3,-1.2601343E-2,-9.5877284E-1,7.290447E-3,9.1462463E-1,-9.881971E-3,6.907881E-3,-1.2892034E-2,-7.770379E-3,1.1966026E0,1.3669901E0,-4.731109E-3,-3.9769737E-3,1.5299624E-2],"categories":[],"categories_nodes":[],"categories_segments":[],"categories_sizes":[],"default_left":[1,0,0,1,1,0,0,0,0,0,0,0,0,0,1,0,0,0,0],"id":51,"left_children":[1,3,5,7,9,-1,-1,11,-1,13,-1,-1,-1,-1,15,17,-1,-1,-1],"loss_changes":[9.90365E0,1.0764843E1,6.034356E0,6.508418E0,8.910433E0,0E0,0E0,5.478679E0,0E0,1.0492275E1,0E0,0E0,0E0,0E0,5.647146E0,5.269184E0,0E0,0E0,0E0],"parents":[2147483647,0,0,1,1,2,2,3,3,4,4,7,7,9,9,14,14,15,15],"right_children":[2,4,6,8,10,-1,-1,12,-1,14,-1,-1,-1,-1,16,18,-1,-1,-1],"split_conditions":[3.0832259E-2,3.6705617E-2,5.3434175E-2,3.897221E-2,5.3722456E-2,6.2671825E-3,-1.2601343E-2,1.0519256E-1,7.290447E-3,4.358142E-2,-9.881971E-3,6.907881E-3,-1.2892034E-2,-7.770379E-3,4.9964946E-2,7.634707E-2,-4.731109E-3,-3.9769737E-3,1.5299624E-2],"split_indices":[318,1625,5758,4910,3741,0,0,4819,0,3195,0,0,0,0,2185,805,0,0,0],"split_type":[0,0,0,0,0,0,0,0,0,0,0,0,0,0,0,0,0,0,0],"sum_hessian":[3.8844727E1,3.0745308E1,8.099419E0,9.724297E0,2.1021013E1,1.5165681E0,6.582851E0,7.4175467E0,2.3067498E0,1.9046627E1,1.9743849E0,1.0558765E0,6.36167E0,2.4703934E0,1.6576235E1,1.5205842E1,1.3703917E0,1.1637982E0,1.4042045E1],"tree_param":{"num_deleted":"0","num_feature":"6390","num_nodes":"19","size_leaf_vector":"1"}},{"base_weights":[-4.7358967E-2,1.3847885E-2,-2.4364778E-1,1.1908605E-2,-4.5713273E-1,1.0875653E-2,-6.110053E-1,9.67615E-3,-7.4012893E-1,-8.93784E-1,6.0001236E-1,-1.0290464E-2,8.614525E-3,-3.7876673E-3,1.1737352E-2],"categories":[],"categories_nodes":[],"categories_segments":[],"categories_sizes":[],"default_left":[0,0,0,0,0,0,0,0,1,1,0,0,0,0,0],"id":52,"left_children":[1,-1,3,-1,5,-1,7,-1,9,11,13,-1,-1,-1,-1],"loss_changes":[1.1173033E1,0E0,1.1186262E1,0E0,8.025795E0,0E0,6.587737E0,0E0,6.1360226E0,6.774027E0,2.3513348E0,0E0,0E0,0E0,0E0],"parents":[2147483647,0,0,2,2,4,4,6,6,8,8,9,9,10,10],"right_children":[2,-1,4,-1,6,-1,8,-1,10,12,14,-1,-1,-1,-1],"split_conditions":[5.572188E-2,1.3847885E-2,4.8829075E-2,1.1908605E-2,1.0519256E-1,1.0875653E-2,7.09236E-2,9.67615E-3,4.358142E-2,6.2128965E-2,9.698214E-2,-1.0290464E-2,8.614525E-3,-3.7876673E-3,1.1737352E-2],"split_indices":[1981,0,315,0,4819,0,5043,0,3195,1705,3163,0,0,0,0],"split_type":[0,0,0,0,0,0,0,0,0,0,0,0,0,0,0],"sum_hessian":[3.7545258E1,3.7957976E0,3.3749462E1,3.7789145E0,2.9970547E1,2.165322E0,2.7805223E1,1.6113777E0,2.6193846E1,2.37983E1,2.3955472E0,2.2479692E1,1.3186071E0,1.0108434E0,1.3847038E0],"tree_param":{"num_deleted":"0","num_feature":"6390","num_nodes":"15","size_leaf_vector":"1"}},{"base_weights":[-1.3449392E-2,1.4433429E-2,-1.9449049E-1,1.3215623E-2,-3.962459E-1,1.0038969E-2,-5.677416E-1,-7.0875025E-1,1.0057123E-2,-8.448016E-1,9.494328E-3,-1.0228907E-2,5.9876814E-3],"categories":[],"categories_nodes":[],"categories_segments":[],"categories_sizes":[],"default_left":[0,0,0,0,0,0,1,1,0,1,0,0,0],"id":53,"left_children":[1,-1,3,-1,5,-1,7,9,-1,11,-1,-1,-1],"loss_changes":[1.0834233E1,0E0,1.1679751E1,0E0,8.48394E0,0E0,7.3691435E0,7.1459284E0,0E0,7.429579E0,0E0,0E0,0E0],"parents":[2147483647,0,0,2,2,4,4,6,6,7,7,9,9],"right_children":[2,-1,4,-1,6,-1,8,10,-1,12,-1,-1,-1],"split_conditions":[9.2712425E-2,1.4433429E-2,4.587843E-2,1.3215623E-2,4.8829075E-2,1.0038969E-2,5.5441786E-2,5.305842E-2,1.0057123E-2,4.9949225E-2,9.494328E-3,-1.0228907E-2,5.9876814E-3],"split_indices":[5790,0,3855,0,315,0,232,5784,0,5805,0,0,0],"split_type":[0,0,0,0,0,0,0,0,0,0,0,0,0],"sum_hessian":[3.901496E1,3.5418801E0,3.547308E1,3.5144079E0,3.1958673E1,2.9576607E0,2.9001013E1,2.7120136E1,1.8808757E0,2.551703E1,1.603107E0,2.2974186E1,2.5428436E0],"tree_param":{"num_deleted":"0","num_feature":"6390","num_nodes":"13","size_leaf_vector":"1"}},{"base_weights":[-4.3908183E-2,-2.1213847E-1,1.3345328E-2,1.1119031E0,-4.3550354E-1,-5.9618935E-4,1.4666215E-2,9.680424E-1,-6.1980927E-1,7.2612375E-4,1.30694825E-2,-7.893518E-1,8.739637E-3,3.7513924E-1,-9.7890806E-1,-7.565322E-3,9.627152E-3,-1.0920097E-2,7.2106277E-3],"categories":[],"categories_nodes":[],"categories_segments":[],"categories_sizes":[],"default_left":[1,0,0,0,0,0,0,0,1,0,0,0,0,0,1,0,0,0,0],"id":54,"left_children":[1,3,-1,5,7,-1,-1,9,11,-1,-1,13,-1,15,17,-1,-1,-1,-1],"loss_changes":[9.589026E0,1.1316699E1,0E0,2.4015222E0,8.893117E0,0E0,0E0,1.1528103E0,8.021089E0,0E0,0E0,6.221697E0,0E0,3.6779368E0,5.226246E0,0E0,0E0,0E0,0E0],"parents":[2147483647,0,0,1,1,3,3,4,4,7,7,8,8,11,11,13,13,14,14],"right_children":[2,4,-1,6,8,-1,-1,10,12,-1,-1,14,-1,16,18,-1,-1,-1,-1],"split_conditions":[4.0770024E-2,4.8829075E-2,1.3345328E-2,3.8680315E-2,1.1294786E-1,-5.9618935E-4,1.4666215E-2,4.3349966E-2,4.5866013E-2,7.2612375E-4,1.30694825E-2,4.436979E-2,8.739637E-3,4.7376547E-2,5.376254E-2,-7.565322E-3,9.627152E-3,-1.0920097E-2,7.2106277E-3],"split_indices":[3120,315,0,7,2493,0,0,1864,4126,0,0,181,0,2453,4078,0,0,0,0],"split_type":[0,0,0,0,0,0,0,0,0,0,0,0,0,0,0,0,0,0,0],"sum_hessian":[3.91298E1,3.562775E1,3.5020463E0,4.568584E0,3.1059168E1,1.2551498E0,3.3134341E0,3.1115289E0,2.794764E1,1.1877106E0,1.9238182E0,2.5522427E1,2.425212E0,3.4358864E0,2.208654E1,1.0759872E0,2.359899E0,2.1044075E1,1.0424647E0],"tree_param":{"num_deleted":"0","num_feature":"6390","num_nodes":"19","size_leaf_vector":"1"}},{"base_weights":[7.024821E-2,1.4073553E-2,-8.502904E-2,-8.382666E-1,1.8464279E-1,6.949418E-3,-1.1100162E-2,-5.141897E-1,6.132802E-1,1.13223065E-2,-8.1971884E-1,-7.93811E-3,9.1020554E-1,7.132142E-3,-1.0887003E0,1.1101594E0,-7.914764E-3,2.0100405E-3,-1.2871868E-2,-4.3042866E-3,1.2965109E-2],"categories":[],"categories_nodes":[],"categories_segments":[],"categories_sizes":[],"default_left":[0,0,0,0,0,0,0,0,0,0,0,0,1,0,0,0,0,0,0,0,0],"id":55,"left_children":[1,-1,3,5,7,-1,-1,9,11,-1,13,-1,15,-1,17,19,-1,-1,-1,-1,-1],"loss_changes":[8.035122E0,0E0,7.284664E0,4.7021284E0,8.303169E0,0E0,0E0,6.301421E0,7.818702E0,0E0,4.7307153E0,0E0,5.809289E0,0E0,2.4485178E0,4.400297E0,0E0,0E0,0E0,0E0,0E0],"parents":[2147483647,0,0,2,2,3,3,4,4,7,7,8,8,10,10,12,12,14,14,15,15],"right_children":[2,-1,4,6,8,-1,-1,10,12,-1,14,-1,16,-1,18,20,-1,-1,-1,-1,-1],"split_conditions":[4.4946067E-2,1.4073553E-2,7.5624056E-2,6.2475298E-2,3.9639115E-2,6.949418E-3,-1.1100162E-2,6.299883E-2,1.0179229E-1,1.13223065E-2,4.0896863E-2,-7.93811E-3,4.86179E-2,7.132142E-3,6.306922E-2,5.03256E-2,-7.914764E-3,2.0100405E-3,-1.2871868E-2,-4.3042866E-3,1.2965109E-2],"split_indices":[1131,0,1904,2260,1625,0,0,1381,1628,0,2829,0,4886,0,2968,5090,0,0,0,0,0],"split_type":[0,0,0,0,0,0,0,0,0,0,0,0,0,0,0,0,0,0,0,0,0],"sum_hessian":[3.7124306E1,3.0236728E0,3.410063E1,8.434163E0,2.566647E1,1.0353637E0,7.3988E0,9.681904E0,1.5984565E1,1.0919348E0,8.589969E0,2.4937184E0,1.3490847E1,1.0357373E0,7.554232E0,1.2383367E1,1.1074804E0,1.0058495E0,6.5483823E0,1.1949357E0,1.1188431E1],"tree_param":{"num_deleted":"0","num_feature":"6390","num_nodes":"21","size_leaf_vector":"1"}},{"base_weights":[5.0762936E-2,-1.036578E-2,2.344127E-1,-7.134635E-1,5.1198834E-1,8.195864E-3,-1.1064273E-2,6.666522E-1,-7.8290645E-3,8.5050666E-1,-7.6540355E-3,9.8993963E-1,-8.460861E-3,1.172734E-2,-6.5936977E-3],"categories":[],"categories_nodes":[],"categories_segments":[],"categories_sizes":[],"default_left":[0,0,0,0,1,0,0,1,0,1,0,1,0,0,0],"id":56,"left_children":[1,-1,3,5,7,-1,-1,9,-1,11,-1,13,-1,-1,-1],"loss_changes":[8.377621E0,0E0,9.749208E0,6.025329E0,6.1634984E0,0E0,0E0,7.4185476E0,0E0,6.3383255E0,0E0,7.39023E0,0E0,0E0,0E0],"parents":[2147483647,0,0,2,2,3,3,4,4,7,7,9,9,11,11],"right_children":[2,-1,4,6,8,-1,-1,10,-1,12,-1,14,-1,-1,-1],"split_conditions":[4.312357E-2,-1.036578E-2,2.0215191E-1,4.9087785E-2,3.806008E-2,8.195864E-3,-1.1064273E-2,4.541561E-2,-7.8290645E-3,4.812235E-2,-7.6540355E-3,4.8560087E-2,-8.460861E-3,1.172734E-2,-6.5936977E-3],"split_indices":[5269,0,4953,1583,798,0,0,4497,0,1071,0,5125,0,0,0],"split_type":[0,0,0,0,0,0,0,0,0,0,0,0,0,0,0],"sum_hessian":[3.9736324E1,5.0705624E0,3.466576E1,7.4964056E0,2.7169355E1,1.3079833E0,6.188422E0,2.4703865E1,2.4654908E0,2.2253006E1,2.4508579E0,2.0947933E1,1.3050745E0,1.911802E1,1.8299127E0],"tree_param":{"num_deleted":"0","num_feature":"6390","num_nodes":"15","size_leaf_vector":"1"}},{"base_weights":[5.9417905E-3,-1.0831747E-2,2.3870595E-1,3.9550376E-1,-1.066216E-2,-2.1009451E-1,7.175156E-1,1.1973119E-2,-1.0112114E0,-9.211337E-3,9.105916E-1,2.197311E-3,-1.2337988E-2,1.1346244E0,-9.042956E-3,1.8713173E-3,1.4823198E-2],"categories":[],"categories_nodes":[],"categories_segments":[],"categories_sizes":[],"default_left":[0,0,1,0,0,0,0,0,0,0,1,0,0,0,0,0,0],"id":57,"left_children":[1,-1,3,5,-1,7,9,-1,11,-1,13,-1,-1,15,-1,-1,-1],"loss_changes":[9.937859E0,0E0,7.0260053E0,5.9122615E0,0E0,1.3646707E1,7.0130167E0,0E0,2.3454838E0,0E0,8.328836E0,0E0,0E0,5.1355896E0,0E0,0E0,0E0],"parents":[2147483647,0,0,2,2,3,3,5,5,6,6,8,8,10,10,13,13],"right_children":[2,-1,4,6,-1,8,10,-1,12,-1,14,-1,-1,16,-1,-1,-1],"split_conditions":[4.34076E-2,-1.0831747E-2,4.9964946E-2,3.9639115E-2,-1.066216E-2,4.820472E-2,4.358142E-2,1.1973119E-2,8.86499E-2,-9.211337E-3,5.8527753E-2,2.197311E-3,-1.2337988E-2,3.8744535E-2,-9.042956E-3,1.8713173E-3,1.4823198E-2],"split_indices":[5269,0,2185,1625,0,33,3195,0,2279,0,805,0,0,318,0,0,0],"split_type":[0,0,0,0,0,0,0,0,0,0,0,0,0,0,0,0,0],"sum_hessian":[3.7181538E1,5.9038E0,3.1277737E1,2.8544748E1,2.732988E0,1.0029714E1,1.8515036E1,3.4587717E0,6.5709424E0,1.5541363E0,1.69609E1,1.0082114E0,5.562731E0,1.5430905E1,1.5299935E0,4.5553875E0,1.0875518E1],"tree_param":{"num_deleted":"0","num_feature":"6390","num_nodes":"17","size_leaf_vector":"1"}},{"base_weights":[-5.009541E-2,1.2840667E-2,-2.1473472E-1,8.586978E-3,-9.270079E-1,9.5170575E-1,-2.1773963E-1,6.7544775E-3,-1.2607065E-2,1.1959529E-2,4.7357904E-4,1.0960245E-2,-4.323641E-1,1.1373634E-2,-6.1070734E-1,1.0401953E-2,-7.7473675E-3],"categories":[],"categories_nodes":[],"categories_segments":[],"categories_sizes":[],"default_left":[0,0,1,0,0,1,0,0,0,0,0,0,0,0,0,0,0],"id":58,"left_children":[1,-1,3,5,7,9,11,-1,-1,-1,-1,-1,13,-1,15,-1,-1],"loss_changes":[8.401072E0,0E0,5.381946E0,5.9088116E0,5.168686E0,1.1263523E0,6.777377E0,0E0,0E0,0E0,0E0,0E0,6.274945E0,0E0,5.829246E0,0E0,0E0],"parents":[2147483647,0,0,2,2,3,3,4,4,5,5,6,6,12,12,14,14],"right_children":[2,-1,4,6,8,10,12,-1,-1,-1,-1,-1,14,-1,16,-1,-1],"split_conditions":[1.2578568E-1,1.2840667E-2,3.856146E-2,6.6424176E-2,3.9363746E-2,3.730638E-2,4.8829075E-2,6.7544775E-3,-1.2607065E-2,1.1959529E-2,4.7357904E-4,1.0960245E-2,1.4540908E-1,1.1373634E-2,7.0337795E-2,1.0401953E-2,-7.7473675E-3],"split_indices":[3120,0,1774,5758,226,1861,315,0,0,0,0,0,1339,0,2260,0,0],"split_type":[0,0,0,0,0,0,0,0,0,0,0,0,0,0,0,0,0],"sum_hessian":[3.599128E1,3.2066638E0,3.278462E1,2.5711226E1,7.0733924E0,4.3557014E0,2.1355524E1,1.0425987E0,6.0307937E0,3.175588E0,1.1801137E0,2.4221706E0,1.8933353E1,1.3830193E0,1.7550333E1,1.1034046E0,1.6446928E1],"tree_param":{"num_deleted":"0","num_feature":"6390","num_nodes":"17","size_leaf_vector":"1"}},{"base_weights":[5.6695763E-2,-1.0528145E-2,2.661711E-1,4.7586206E-1,-1.1306108E-2,-4.0949553E-1,6.995392E-1,-8.7621576E-1,1.027714E-2,8.6670464E-1,-9.434173E-3,6.1350316E-4,-1.1352587E-2,-8.562252E-3,1.0265887E0,1.1586532E-2,-7.548069E-3],"categories":[],"categories_nodes":[],"categories_segments":[],"categories_sizes":[],"default_left":[0,0,1,0,0,1,1,0,0,0,0,0,0,0,1,0,0],"id":59,"left_children":[1,-1,3,5,-1,7,9,11,-1,13,-1,-1,-1,-1,15,-1,-1],"loss_changes":[9.427827E0,0E0,1.0468914E1,6.263987E0,0E0,5.4071198E0,7.5370893E0,1.4324799E0,0E0,7.1397266E0,0E0,0E0,0E0,0E0,5.8743706E0,0E0,0E0],"parents":[2147483647,0,0,2,2,3,3,5,5,6,6,7,7,9,9,14,14],"right_children":[2,-1,4,6,-1,8,10,12,-1,14,-1,-1,-1,-1,16,-1,-1],"split_conditions":[4.312357E-2,-1.0528145E-2,4.9617324E-2,9.835433E-2,-1.1306108E-2,4.67349E-2,5.1630955E-2,4.7536675E-2,1.027714E-2,7.380591E-2,-9.434173E-3,6.1350316E-4,-1.1352587E-2,-8.562252E-3,5.31096E-2,1.1586532E-2,-7.548069E-3],"split_indices":[5269,0,2185,4953,0,5140,3873,3095,0,4237,0,0,0,0,5383,0,0],"split_type":[0,0,0,0,0,0,0,0,0,0,0,0,0,0,0,0,0],"sum_hessian":[3.8358887E1,5.4526E0,3.290629E1,2.9184326E1,3.7219625E0,5.718529E0,2.3465797E1,4.6113667E0,1.1071625E0,2.172756E1,1.7382362E0,1.1634833E0,3.4478834E0,1.4752113E0,2.025235E1,1.9180012E1,1.0723375E0],"tree_param":{"num_deleted":"0","num_feature":"6390","num_nodes":"17","size_leaf_vector":"1"}},{"base_weights":[-5.039248E-3,-7.878519E-1,2.4416257E-1,9.807244E-3,-1.1180198E-2,3.602438E-2,1.1923647E-2,2.2728795E-1,-1.087761E-2,-7.1276325E-1,4.2947933E-1,8.39192E-4,-1.0132936E-2,-9.308825E-3,6.1120605E-1,7.977481E-3,-8.716845E-3],"categories":[],"categories_nodes":[],"categories_segments":[],"categories_sizes":[],"default_left":[0,0,1,0,0,1,0,0,0,0,0,0,0,0,1,0,0],"id":60,"left_children":[1,3,5,-1,-1,7,-1,9,-1,11,13,-1,-1,-1,15,-1,-1],"loss_changes":[7.9106455E0,6.813352E0,6.0306363E0,0E0,0E0,5.892921E0,0E0,4.729688E0,0E0,1.1614218E0,5.4582815E0,0E0,0E0,0E0,5.6885777E0,0E0,0E0],"parents":[2147483647,0,0,1,1,2,2,5,5,7,7,9,9,10,10,14,14],"right_children":[2,4,6,-1,-1,8,-1,10,-1,12,14,-1,-1,-1,16,-1,-1],"split_conditions":[7.5624056E-2,1.3443178E-1,2.5778282E-2,9.807244E-3,-1.1180198E-2,3.8290035E-2,1.1923647E-2,5.1800054E-2,-1.087761E-2,4.9668793E-2,1.07460506E-1,8.39192E-4,-1.0132936E-2,-9.308825E-3,5.0224055E-2,7.977481E-3,-8.716845E-3],"split_indices":[1904,2622,1717,0,0,2829,0,2453,0,5190,133,0,0,0,3073,0,0],"split_type":[0,0,0,0,0,0,0,0,0,0,0,0,0,0,0,0,0],"sum_hessian":[3.8565033E1,8.790405E0,2.9774628E1,1.0729051E0,7.7175007E0,2.526643E1,4.5081973E0,2.2273348E1,2.9930823E0,3.4956732E0,1.8777674E1,1.1548963E0,2.340777E0,1.727041E0,1.7050632E1,1.5555804E1,1.4948292E0],"tree_param":{"num_deleted":"0","num_feature":"6390","num_nodes":"17","size_leaf_vector":"1"}},{"base_weights":[-1.6915164E-3,1.2037995E0,-2.1495837E-1,1.4605348E-2,8.590398E-4,-8.905729E-1,8.5611045E-2,6.819642E-3,-1.13308765E-2,-9.6792765E-3,3.1166694E-1,-9.440798E-2,1.3693111E-2,1.074502E-2,-3.52333E-1,8.969272E-3,-5.8986973E-3],"categories":[],"categories_nodes":[],"categories_segments":[],"categories_sizes":[],"default_left":[0,1,0,0,0,0,0,0,0,0,1,0,0,0,0,0,0],"id":61,"left_children":[1,3,5,-1,-1,7,9,-1,-1,-1,11,13,-1,-1,15,-1,-1],"loss_changes":[1.025162E1,1.5949078E0,6.9551334E0,0E0,0E0,4.783824E0,6.1024656E0,0E0,0E0,0E0,9.066962E0,5.1941514E0,0E0,0E0,4.635509E0,0E0,0E0],"parents":[2147483647,0,0,1,1,2,2,5,5,6,6,10,10,11,11,14,14],"right_children":[2,4,6,-1,-1,8,10,-1,-1,-1,12,14,-1,-1,16,-1,-1],"split_conditions":[5.671884E-2,3.0907921E-2,7.5624056E-2,1.4605348E-2,8.590398E-4,2.1634603E-1,3.6134195E-2,6.819642E-3,-1.13308765E-2,-9.6792765E-3,2.4186071E-2,5.127664E-2,1.3693111E-2,1.074502E-2,6.3608505E-2,8.969272E-3,-5.8986973E-3],"split_indices":[1131,0,1904,0,0,2175,284,0,0,0,1983,5839,0,0,2975,0,0],"split_type":[0,0,0,0,0,0,0,0,0,0,0,0,0,0,0,0,0],"sum_hessian":[3.78689E1,4.9942617E0,3.2874638E1,3.8122406E0,1.1820215E0,9.517783E0,2.3356855E1,1.0295868E0,8.488196E0,3.5465004E0,1.9810354E1,1.4972506E1,4.8378487E0,2.1342387E0,1.2838266E1,1.6075964E0,1.1230671E1],"tree_param":{"num_deleted":"0","num_feature":"6390","num_nodes":"17","size_leaf_vector":"1"}},{"base_weights":[6.290998E-2,-1.0190217E-1,1.2984173E-2,9.6936566E-1,-2.9887682E-1,-4.400651E-3,1.4374903E-2,1.1359684E-2,-4.6029204E-1,6.9169897E-1,-7.0611745E-1,1.0367366E-2,-3.4623435E-3,9.796167E-3,-8.9511657E-1,7.3367283E-3,-1.0101625E-2],"categories":[],"categories_nodes":[],"categories_segments":[],"categories_sizes":[],"default_left":[1,0,0,0,0,0,0,0,0,1,0,0,0,0,0,0,0],"id":62,"left_children":[1,3,-1,5,7,-1,-1,-1,9,11,13,-1,-1,-1,15,-1,-1],"loss_changes":[8.141093E0,7.807863E0,0E0,4.4391074E0,7.6701374E0,0E0,0E0,0E0,8.54533E0,2.3317287E0,8.504871E0,0E0,0E0,0E0,4.8731556E0,0E0,0E0],"parents":[2147483647,0,0,1,1,3,3,4,4,8,8,9,9,10,10,14,14],"right_children":[2,4,-1,6,8,-1,-1,-1,10,12,14,-1,-1,-1,16,-1,-1],"split_conditions":[4.0770024E-2,4.8829075E-2,1.2984173E-2,3.704317E-2,4.587843E-2,-4.400651E-3,1.4374903E-2,1.1359684E-2,6.6424176E-2,4.124144E-2,5.7126734E-2,1.0367366E-2,-3.4623435E-3,9.796167E-3,6.477414E-2,7.3367283E-3,-1.0101625E-2],"split_indices":[3120,315,0,1583,3855,0,0,0,5758,1182,2887,0,0,0,4335,0,0],"split_type":[0,0,0,0,0,0,0,0,0,0,0,0,0,0,0,0,0],"sum_hessian":[3.833072E1,3.4628876E1,3.701843E0,4.769293E0,2.9859583E1,1.2040567E0,3.565236E0,2.4089036E0,2.745068E1,4.508604E0,2.2942076E1,3.3846169E0,1.1239871E0,1.8911569E0,2.1050919E1,1.0340406E0,2.0016878E1],"tree_param":{"num_deleted":"0","num_feature":"6390","num_nodes":"17","size_leaf_vector":"1"}},{"base_weights":[1.5854402E-2,-1.157868E-2,2.2034849E-1,3.7972766E-1,-1.0434872E-2,-8.4182145E-3,5.372772E-1,6.993064E-1,-9.70802E-3,-6.092996E-3,8.8141984E-1,-6.0399907E-4,1.1239627E-2],"categories":[],"categories_nodes":[],"categories_segments":[],"categories_sizes":[],"default_left":[0,0,1,0,0,0,1,0,0,0,0,0,0],"id":63,"left_children":[1,-1,3,5,-1,-1,7,9,-1,-1,11,-1,-1],"loss_changes":[9.440361E0,0E0,7.13015E0,6.306781E0,0E0,0E0,7.4121084E0,6.605315E0,0E0,0E0,5.2672825E0,0E0,0E0],"parents":[2147483647,0,0,2,2,3,3,6,6,7,7,10,10],"right_children":[2,-1,4,6,-1,-1,8,10,-1,-1,12,-1,-1],"split_conditions":[4.312357E-2,-1.157868E-2,4.644438E-2,1.2840171E-1,-1.0434872E-2,-8.4182145E-3,4.7397852E-2,5.179594E-2,-9.70802E-3,-6.092996E-3,5.6557037E-2,-6.0399907E-4,1.1239627E-2],"split_indices":[5269,0,230,5072,0,0,5397,4467,0,0,1636,0,0],"split_type":[0,0,0,0,0,0,0,0,0,0,0,0,0],"sum_hessian":[3.7268703E1,4.838032E0,3.243067E1,2.9420116E1,3.0105538E0,2.8648093E0,2.6555307E1,2.446325E1,2.0920575E0,2.7019835E0,2.1761267E1,4.6102285E0,1.7151037E1],"tree_param":{"num_deleted":"0","num_feature":"6390","num_nodes":"13","size_leaf_vector":"1"}},{"base_weights":[-3.8842894E-2,1.6260211E-1,-1.0502629E-2,-9.433333E-3,3.5171384E-1,-5.711258E-1,5.6455433E-1,-1.1387383E-2,7.98419E-3,-3.5642266E-1,8.431075E-1,-9.205277E-3,4.702866E-1,-8.06412E-3,1.0073156E0,1.0456743E-2,-3.1659447E-3,-7.4019567E-3,1.1640763E-2],"categories":[],"categories_nodes":[],"categories_segments":[],"categories_sizes":[],"default_left":[1,0,0,0,0,1,0,0,0,1,0,0,0,0,0,0,0,0,0],"id":64,"left_children":[1,3,-1,-1,5,7,9,-1,-1,11,13,-1,15,-1,17,-1,-1,-1,-1],"loss_changes":[8.071122E0,7.275673E0,0E0,0E0,6.0345306E0,5.5324626E0,6.4918847E0,0E0,0E0,3.3743014E0,5.911834E0,0E0,1.7889649E0,0E0,5.6739483E0,0E0,0E0,0E0,0E0],"parents":[2147483647,0,0,1,1,4,4,5,5,6,6,9,9,10,10,12,12,14,14],"right_children":[2,4,-1,-1,6,8,10,-1,-1,12,14,-1,16,-1,18,-1,-1,-1,-1],"split_conditions":[4.6217117E-2,4.312357E-2,-1.0502629E-2,-9.433333E-3,7.8626014E-2,3.8266987E-2,8.100613E-2,-1.1387383E-2,7.98419E-3,4.5207974E-2,5.227514E-2,-9.205277E-3,3.984971E-2,-8.06412E-3,2.0467697E-1,1.0456743E-2,-3.1659447E-3,-7.4019567E-3,1.1640763E-2],"split_indices":[1836,5269,0,0,2418,6341,3970,0,0,2218,1949,0,1797,0,5087,0,0,0,0],"split_type":[0,0,0,0,0,0,0,0,0,0,0,0,0,0,0,0,0,0,0],"sum_hessian":[3.7775566E1,3.220126E1,5.5743065E0,4.1198606E0,2.8081398E1,4.94732E0,2.3134077E1,3.6168375E0,1.3304826E0,5.307246E0,1.7826832E1,3.0872068E0,2.2200394E0,1.2598954E0,1.6566936E1,1.092379E0,1.1276604E0,1.0574162E0,1.550952E1],"tree_param":{"num_deleted":"0","num_feature":"6390","num_nodes":"19","size_leaf_vector":"1"}},{"base_weights":[8.867635E-2,-9.7770274E-1,3.5906368E-1,1.5495258E-3,-1.1953785E-2,-6.5493333E-1,6.73096E-1,8.75598E-3,-1.1912918E-2,8.4613997E-1,-9.561038E-3,1.3151928E-2,1.3349884E0,-3.2570451E-1,1.1186593E-2,1.5499471E0,-7.050529E-3,9.869807E-3,-6.8768524E-3,6.3122466E-4,1.6703362E-2],"categories":[],"categories_nodes":[],"categories_segments":[],"categories_sizes":[],"default_left":[0,0,0,0,0,0,1,0,0,0,0,1,1,0,0,0,0,0,0,0,0],"id":65,"left_children":[1,3,5,-1,-1,7,9,-1,-1,11,-1,13,15,17,-1,19,-1,-1,-1,-1,-1],"loss_changes":[1.115357E1,2.119834E0,1.0190594E1,0E0,0E0,7.4027276E0,7.538905E0,0E0,0E0,8.985692E0,0E0,3.805782E0,7.1984406E0,4.387872E0,0E0,2.205164E0,0E0,0E0,0E0,0E0,0E0],"parents":[2147483647,0,0,1,1,2,2,5,5,6,6,9,9,11,11,12,12,13,13,15,15],"right_children":[2,4,6,-1,-1,8,10,-1,-1,12,-1,14,16,18,-1,20,-1,-1,-1,-1,-1],"split_conditions":[4.3753717E-2,5.755197E-2,9.835433E-2,1.5495258E-3,-1.1953785E-2,8.977198E-2,5.3025644E-2,8.75598E-3,-1.1912918E-2,4.177172E-2,-9.561038E-3,4.332171E-2,4.9157612E-2,4.7672916E-2,1.1186593E-2,3.128695E-2,-7.050529E-3,9.869807E-3,-6.8768524E-3,6.3122466E-4,1.6703362E-2],"split_indices":[2187,979,4953,0,0,1852,21,0,0,5052,0,1867,2429,4825,0,5532,0,0,0,0,0],"split_type":[0,0,0,0,0,0,0,0,0,0,0,0,0,0,0,0,0,0,0,0,0],"sum_hessian":[3.6465096E1,6.846659E0,2.9618435E1,1.150144E0,5.696515E0,6.7470236E0,2.2871412E1,1.5867238E0,5.1603E0,2.1109884E1,1.7615268E0,8.186741E0,1.2923144E1,6.805976E0,1.380765E0,1.1908576E1,1.0145677E0,1.0979097E0,5.7080665E0,1.0061971E0,1.0902379E1],"tree_param":{"num_deleted":"0","num_feature":"6390","num_nodes":"21","size_leaf_vector":"1"}},{"base_weights":[5.708668E-4,2.2341432E-1,-1.176159E-2,-1.09865945E-2,4.2562014E-1,5.752014E-1,-1.0045705E-2,-4.5275563E-1,8.2836497E-1,-8.0436945E-1,6.3037565E-3,-8.721867E-3,1.0048286E0,1.4654926E-3,-1.0863875E-2,1.1806382E-2,-8.692592E-3],"categories":[],"categories_nodes":[],"categories_segments":[],"categories_sizes":[],"default_left":[1,0,0,0,1,0,0,1,0,0,0,0,1,0,0,0,0],"id":66,"left_children":[1,3,-1,-1,5,7,-1,9,11,13,-1,-1,15,-1,-1,-1,-1],"loss_changes":[1.0272916E1,9.272405E0,0E0,0E0,6.843303E0,7.4406815E0,0E0,2.7966118E0,7.519843E0,1.4941487E0,0E0,0E0,7.7878876E0,0E0,0E0,0E0,0E0],"parents":[2147483647,0,0,1,1,4,4,5,5,7,7,8,8,9,9,12,12],"right_children":[2,4,-1,-1,6,8,-1,10,12,14,-1,-1,16,-1,-1,-1,-1],"split_conditions":[4.0614303E-2,5.256864E-2,-1.176159E-2,-1.09865945E-2,4.4937707E-2,9.989845E-2,-1.0045705E-2,3.7218314E-2,5.227514E-2,4.93503E-2,6.3037565E-3,-8.721867E-3,4.501169E-2,1.4654926E-3,-1.0863875E-2,1.1806382E-2,-8.692592E-3],"split_indices":[4799,2366,0,0,2185,5470,0,1817,4292,5581,0,0,1843,0,0,0,0],"split_type":[0,0,0,0,0,0,0,0,0,0,0,0,0,0,0,0,0],"sum_hessian":[3.7173653E1,3.1935919E1,5.237731E0,3.6483953E0,2.8287525E1,2.615032E1,2.1372037E0,5.011797E0,2.1138523E1,3.9778464E0,1.0339503E0,1.6166393E0,1.9521885E1,1.0197546E0,2.9580917E0,1.8185873E1,1.3360114E0],"tree_param":{"num_deleted":"0","num_feature":"6390","num_nodes":"17","size_leaf_vector":"1"}},{"base_weights":[7.969912E-4,-8.6978096E-1,2.7070293E-1,9.716203E-3,-1.2108129E-2,-2.670749E-1,5.8775043E-1,1.063998E-2,-6.5501803E-1,-8.52212E-3,8.796864E-1,5.778839E-3,-9.403714E-1,1.054471E0,-8.358333E-3,1.5952488E-3,-1.1348907E-2,1.2361826E0,-7.5693196E-3,-3.8704854E-3,1.400221E-2],"categories":[],"categories_nodes":[],"categories_segments":[],"categories_sizes":[],"default_left":[0,0,0,0,0,0,0,0,0,0,1,0,0,1,0,0,0,0,0,0,0],"id":67,"left_children":[1,3,5,-1,-1,7,9,-1,11,-1,13,-1,15,17,-1,-1,-1,19,-1,-1,-1],"loss_changes":[9.634985E0,7.270521E0,5.4933376E0,0E0,0E0,7.046237E0,9.158199E0,0E0,4.1107564E0,0E0,6.0155525E0,0E0,2.0241694E0,6.1961193E0,0E0,0E0,0E0,4.510582E0,0E0,0E0,0E0],"parents":[2147483647,0,0,1,1,2,2,5,5,6,6,8,8,10,10,12,12,13,13,17,17],"right_children":[2,4,6,-1,-1,8,10,-1,12,-1,14,-1,16,18,-1,-1,-1,20,-1,-1,-1],"split_conditions":[7.5624056E-2,6.604933E-2,3.8793195E-2,9.716203E-3,-1.2108129E-2,5.671884E-2,1.0179229E-1,1.063998E-2,4.2541564E-2,-8.52212E-3,5.7713225E-2,5.778839E-3,8.282311E-2,5.074205E-2,-8.358333E-3,1.5952488E-3,-1.1348907E-2,5.3028136E-2,-7.5693196E-3,-3.8704854E-3,1.400221E-2],"split_indices":[1904,2894,1625,0,0,1131,1628,0,2831,0,1826,0,752,2878,0,0,0,5457,0,0,0],"split_type":[0,0,0,0,0,0,0,0,0,0,0,0,0,0,0,0,0,0,0,0,0],"sum_hessian":[3.900241E1,8.704294E0,3.0298117E1,1.0712144E0,7.633079E0,1.1295775E1,1.900234E1,2.1559212E0,9.139854E0,2.879609E0,1.6122732E1,1.5251439E0,7.6147103E0,1.4981668E1,1.1410631E0,1.1713413E0,6.443369E0,1.3904399E1,1.07727E0,1.1513911E0,1.2753008E1],"tree_param":{"num_deleted":"0","num_feature":"6390","num_nodes":"21","size_leaf_vector":"1"}},{"base_weights":[9.421843E-3,-1.0250903E-2,2.0245208E-1,-6.84093E-1,4.7022307E-1,-9.6292996E-1,6.4080143E-3,6.38041E-1,-9.90048E-3,1.0743779E-3,-1.1758404E-2,-8.965491E-3,8.0142486E-1,9.4936943E-1,-8.789346E-3,-7.80775E-3,1.0955927E-2],"categories":[],"categories_nodes":[],"categories_segments":[],"categories_sizes":[],"default_left":[0,0,0,1,1,0,0,0,0,0,0,0,1,0,0,0,0],"id":68,"left_children":[1,-1,3,5,7,9,-1,11,-1,-1,-1,-1,13,15,-1,-1,-1],"loss_changes":[7.993346E0,0E0,8.32013E0,3.6549718E0,7.1183887E0,1.7655816E0,0E0,6.823612E0,0E0,0E0,0E0,0E0,6.43653E0,6.2166805E0,0E0,0E0,0E0],"parents":[2147483647,0,0,2,2,3,3,4,4,5,5,7,7,12,12,13,13],"right_children":[2,-1,4,6,8,10,-1,12,-1,-1,-1,-1,14,16,-1,-1,-1],"split_conditions":[4.312357E-2,-1.0250903E-2,1.01070955E-1,2.8856408E-2,5.3957704E-2,7.195762E-2,6.4080143E-3,5.3862642E-2,-9.90048E-3,1.0743779E-3,-1.1758404E-2,-8.965491E-3,4.5963235E-2,7.380591E-2,-8.789346E-3,-7.80775E-3,1.0955927E-2],"split_indices":[5269,0,4953,6341,605,4504,0,6158,0,0,0,0,1843,4237,0,0,0],"split_type":[0,0,0,0,0,0,0,0,0,0,0,0,0,0,0,0,0],"sum_hessian":[3.798909E1,5.2959332E0,3.2693157E1,7.223287E0,2.5469868E1,6.193093E0,1.0301944E0,2.3349548E1,2.1203208E0,1.1096944E0,5.0833983E0,1.8149711E0,2.1534576E1,2.019184E1,1.342738E0,1.2353472E0,1.8956491E1],"tree_param":{"num_deleted":"0","num_feature":"6390","num_nodes":"17","size_leaf_vector":"1"}},{"base_weights":[7.898058E-2,-1.0429406E-2,2.9659727E-1,4.7485024E-1,-8.883381E-3,-8.280887E-3,6.392398E-1,-9.049906E-3,7.7551496E-1,-8.888502E-3,9.2720526E-1,-7.911024E-3,1.0557734E-2],"categories":[],"categories_nodes":[],"categories_segments":[],"categories_sizes":[],"default_left":[0,0,1,0,0,0,0,0,0,0,0,0,0],"id":69,"left_children":[1,-1,3,5,-1,-1,7,-1,9,-1,11,-1,-1],"loss_changes":[1.0015151E1,0E0,7.618885E0,7.0128894E0,0E0,0E0,6.476989E0,0E0,7.3267946E0,0E0,6.1581535E0,0E0,0E0],"parents":[2147483647,0,0,2,2,3,3,6,6,8,8,10,10],"right_children":[2,-1,4,6,-1,-1,8,-1,10,-1,12,-1,-1],